<?xml version="1.0"?>
<MethodSetup Method="DNN::DNN_CPU">
  <GeneralInfo>
    <Info name="TMVA Release" value="4.2.1 [262657]"/>
    <Info name="ROOT Release" value="6.14/04 [396804]"/>
    <Info name="Creator" value="chrispap"/>
    <Info name="Date" value="Sat Apr  4 19:52:57 2020"/>
    <Info name="Host" value="Darwin Chriss-MacBook-Pro.local 18.5.0 Darwin Kernel Version 18.5.0: Mon Mar 11 20:40:32 PDT 2019; root:xnu-4903.251.3~3/RELEASE_X86_64 x86_64"/>
    <Info name="Dir" value="/Users/chrispap/Documents/SaturationAnalysis"/>
    <Info name="Training events" value="1400000"/>
    <Info name="TrainingTime" value="1.99116807e+03"/>
    <Info name="AnalysisType" value="Regression"/>
  </GeneralInfo>
  <Options>
    <Option name="V" modified="Yes">True</Option>
    <Option name="VerbosityLevel" modified="No">Verbose</Option>
    <Option name="VarTransform" modified="Yes">G</Option>
    <Option name="H" modified="Yes">False</Option>
    <Option name="CreateMVAPdfs" modified="No">False</Option>
    <Option name="IgnoreNegWeightsInTraining" modified="No">False</Option>
    <Option name="Layout" modified="Yes">SYMMRELU|24,Layout=SYMMRELU|22,Layout=SYMMRELU|22,LINEAR</Option>
    <Option name="ValidationSize" modified="No">20%</Option>
    <Option name="ErrorStrategy" modified="Yes">SUMOFSQUARES</Option>
    <Option name="WeightInitialization" modified="Yes">XAVIERUNIFORM</Option>
    <Option name="Architecture" modified="Yes">CPU</Option>
    <Option name="TrainingStrategy" modified="Yes">LearningRate=1e-3,Momentum=0.5,Repetitions=1,ConvergenceSteps=20,BatchSize=200,TestRepetitions=10,WeightDecay=0.01,Regularization=NONE,DropConfig=0.2+0.2+0.2+0.,DropRepetitions=2|LearningRate=1e-3,Momentum=0.7,Repetitions=1,ConvergenceSteps=20,BatchSize=200,TestRepetitions=5,WeightDecay=0.01,Regularization=L2,DropConfig=0.1+0.1+0.1,DropRepetitions=1|LearningRate=1e-4,Momentum=0.3,Repetitions=1,ConvergenceSteps=20,BatchSize=200,TestRepetitions=5,WeightDecay=0.01,Regularization=NONE|LearningRate=1e-4,Momentum=0.1,Repetitions=1,ConvergenceSteps=20,BatchSize=200,TestRepetitions=5,WeightDecay=0.01,Regularization=NONE</Option>
  </Options>
  <Variables NVar="22">
    <Variable VarIndex="0" Expression="layer" Label="layer" Title="layer" Unit="units" Internal="layer" Type="F" Min="3.00000000e+00" Max="2.80000000e+01"/>
    <Variable VarIndex="1" Expression="n1" Label="n1" Title="neighbor 1" Unit="units" Internal="n1" Type="F" Min="0.00000000e+00" Max="4.13901138e+01"/>
    <Variable VarIndex="2" Expression="n2" Label="n2" Title="neighbor 2" Unit="units" Internal="n2" Type="F" Min="0.00000000e+00" Max="4.13901138e+01"/>
    <Variable VarIndex="3" Expression="n3" Label="n3" Title="neighbor 3" Unit="units" Internal="n3" Type="F" Min="0.00000000e+00" Max="4.13901138e+01"/>
    <Variable VarIndex="4" Expression="n4" Label="n4" Title="neighbor 4" Unit="units" Internal="n4" Type="F" Min="0.00000000e+00" Max="4.13901138e+01"/>
    <Variable VarIndex="5" Expression="n5" Label="n5" Title="neighbor 5" Unit="units" Internal="n5" Type="F" Min="0.00000000e+00" Max="4.13901138e+01"/>
    <Variable VarIndex="6" Expression="n6" Label="n6" Title="neighbor 6" Unit="units" Internal="n6" Type="F" Min="0.00000000e+00" Max="4.13901138e+01"/>
    <Variable VarIndex="7" Expression="nup" Label="nup" Title="neighbor up" Unit="units" Internal="nup" Type="F" Min="0.00000000e+00" Max="8.21198425e+01"/>
    <Variable VarIndex="8" Expression="ndown" Label="ndown" Title="neighbor down" Unit="units" Internal="ndown" Type="F" Min="9.68267173e-02" Max="4.13901138e+01"/>
    <Variable VarIndex="9" Expression="un1" Label="un1" Title="up 1" Unit="units" Internal="un1" Type="F" Min="0.00000000e+00" Max="8.21198425e+01"/>
    <Variable VarIndex="10" Expression="un2" Label="un2" Title="up 2" Unit="units" Internal="un2" Type="F" Min="0.00000000e+00" Max="8.21198425e+01"/>
    <Variable VarIndex="11" Expression="un3" Label="un3" Title="up 3" Unit="units" Internal="un3" Type="F" Min="0.00000000e+00" Max="8.21198425e+01"/>
    <Variable VarIndex="12" Expression="un4" Label="un4" Title="up 4" Unit="units" Internal="un4" Type="F" Min="0.00000000e+00" Max="8.21198425e+01"/>
    <Variable VarIndex="13" Expression="un5" Label="un5" Title="up 5" Unit="units" Internal="un5" Type="F" Min="0.00000000e+00" Max="8.21198425e+01"/>
    <Variable VarIndex="14" Expression="un6" Label="un6" Title="up 6" Unit="units" Internal="un6" Type="F" Min="0.00000000e+00" Max="8.21198425e+01"/>
    <Variable VarIndex="15" Expression="dn1" Label="dn1" Title="down 1" Unit="units" Internal="dn1" Type="F" Min="0.00000000e+00" Max="4.13901138e+01"/>
    <Variable VarIndex="16" Expression="dn2" Label="dn2" Title="down 2" Unit="units" Internal="dn2" Type="F" Min="0.00000000e+00" Max="4.13901138e+01"/>
    <Variable VarIndex="17" Expression="dn3" Label="dn3" Title="down 3" Unit="units" Internal="dn3" Type="F" Min="0.00000000e+00" Max="4.13901138e+01"/>
    <Variable VarIndex="18" Expression="dn4" Label="dn4" Title="down 4" Unit="units" Internal="dn4" Type="F" Min="0.00000000e+00" Max="4.13901138e+01"/>
    <Variable VarIndex="19" Expression="dn5" Label="dn5" Title="down 5" Unit="units" Internal="dn5" Type="F" Min="0.00000000e+00" Max="4.13901138e+01"/>
    <Variable VarIndex="20" Expression="dn6" Label="dn6" Title="down 6" Unit="units" Internal="dn6" Type="F" Min="0.00000000e+00" Max="4.13901138e+01"/>
    <Variable VarIndex="21" Expression="cellType" Label="cellType" Title="cellType" Unit="units" Internal="cellType" Type="F" Min="0.00000000e+00" Max="1.00000000e+00"/>
  </Variables>
  <Spectators NSpec="0"/>
  <Classes NClass="1">
    <Class Name="Regression" Index="0"/>
  </Classes>
  <Targets NTrgt="1">
    <Target TargetIndex="0" Expression="rechit" Label="rechit" Title="rechit" Unit="" Internal="rechit" Type="F" Min="9.38001728e+00" Max="1.84504333e+02"/>
  </Targets>
  <Transformations NTransformations="1">
    <Transform Name="Gauss" FlatOrGauss="Gauss">
      <Selection>
        <Input NInputs="22">
          <Input Type="Variable" Label="layer" Expression="layer"/>
          <Input Type="Variable" Label="n1" Expression="n1"/>
          <Input Type="Variable" Label="n2" Expression="n2"/>
          <Input Type="Variable" Label="n3" Expression="n3"/>
          <Input Type="Variable" Label="n4" Expression="n4"/>
          <Input Type="Variable" Label="n5" Expression="n5"/>
          <Input Type="Variable" Label="n6" Expression="n6"/>
          <Input Type="Variable" Label="nup" Expression="nup"/>
          <Input Type="Variable" Label="ndown" Expression="ndown"/>
          <Input Type="Variable" Label="un1" Expression="un1"/>
          <Input Type="Variable" Label="un2" Expression="un2"/>
          <Input Type="Variable" Label="un3" Expression="un3"/>
          <Input Type="Variable" Label="un4" Expression="un4"/>
          <Input Type="Variable" Label="un5" Expression="un5"/>
          <Input Type="Variable" Label="un6" Expression="un6"/>
          <Input Type="Variable" Label="dn1" Expression="dn1"/>
          <Input Type="Variable" Label="dn2" Expression="dn2"/>
          <Input Type="Variable" Label="dn3" Expression="dn3"/>
          <Input Type="Variable" Label="dn4" Expression="dn4"/>
          <Input Type="Variable" Label="dn5" Expression="dn5"/>
          <Input Type="Variable" Label="dn6" Expression="dn6"/>
          <Input Type="Variable" Label="cellType" Expression="cellType"/>
        </Input>
        <Output NOutputs="22">
          <Output Type="Variable" Label="layer" Expression="layer"/>
          <Output Type="Variable" Label="n1" Expression="n1"/>
          <Output Type="Variable" Label="n2" Expression="n2"/>
          <Output Type="Variable" Label="n3" Expression="n3"/>
          <Output Type="Variable" Label="n4" Expression="n4"/>
          <Output Type="Variable" Label="n5" Expression="n5"/>
          <Output Type="Variable" Label="n6" Expression="n6"/>
          <Output Type="Variable" Label="nup" Expression="nup"/>
          <Output Type="Variable" Label="ndown" Expression="ndown"/>
          <Output Type="Variable" Label="un1" Expression="un1"/>
          <Output Type="Variable" Label="un2" Expression="un2"/>
          <Output Type="Variable" Label="un3" Expression="un3"/>
          <Output Type="Variable" Label="un4" Expression="un4"/>
          <Output Type="Variable" Label="un5" Expression="un5"/>
          <Output Type="Variable" Label="un6" Expression="un6"/>
          <Output Type="Variable" Label="dn1" Expression="dn1"/>
          <Output Type="Variable" Label="dn2" Expression="dn2"/>
          <Output Type="Variable" Label="dn3" Expression="dn3"/>
          <Output Type="Variable" Label="dn4" Expression="dn4"/>
          <Output Type="Variable" Label="dn5" Expression="dn5"/>
          <Output Type="Variable" Label="dn6" Expression="dn6"/>
          <Output Type="Variable" Label="cellType" Expression="cellType"/>
        </Output>
      </Selection>
      <Variable VarIndex="0">
        <CumulativePDF_cls0>
          <PDF Name="GaussTransform var0 cls0" MinNSmooth="0" MaxNSmooth="0" InterpolMethod="1" KDE_type="0" KDE_iter="1" KDE_border="1" KDE_finefactor="0.0000000000000000e+00">
            <Histogram Name="Cumulative_Var0_cls0_original" NBins="24" XMin="2.9999001026153564e+00" XMax="2.8000000000000000e+01" HasEquidistantBins="0">
              0.00000000e+00 0.00000000e+00 4.20399057e-03 2.39505041e-02 6.82936013e-02 1.35012195e-01 2.19975457e-01 3.17852497e-01 4.21049833e-01 5.24567068e-01 6.24889851e-01 7.17782378e-01 7.98100054e-01 8.63918722e-01 9.14455593e-01 9.49558139e-01 9.72172499e-01 9.85281706e-01 9.92416263e-01 9.96287286e-01 9.98193979e-01 9.99173641e-01 9.99678731e-01 1.00000000e+00 
            </Histogram>
            <HistogramBinning NBins="24">
              2.99990010e+00 3.00000000e+00 4.00000000e+00 5.00000000e+00 6.00000000e+00 7.00000000e+00 8.00000000e+00 9.00000000e+00 1.00000000e+01 1.10000000e+01 1.20000000e+01 1.30000000e+01 1.40000000e+01 1.50000000e+01 1.60000000e+01 1.70000000e+01 1.80000000e+01 1.90000000e+01 2.00000000e+01 2.10000000e+01 2.20000000e+01 2.30000000e+01 2.40000000e+01 2.50000000e+01 2.80000000e+01 
            </HistogramBinning>
          </PDF>
        </CumulativePDF_cls0>
      </Variable>
      <Variable VarIndex="1">
        <CumulativePDF_cls0>
          <PDF Name="GaussTransform var1 cls0" MinNSmooth="0" MaxNSmooth="0" InterpolMethod="1" KDE_type="0" KDE_iter="1" KDE_border="1" KDE_finefactor="0.0000000000000000e+00">
            <Histogram Name="Cumulative_Var1_cls0_original" NBins="1852" XMin="-9.9999997473787516e-05" XMax="4.1390113830566406e+01" HasEquidistantBins="0">
              4.86965728e-04 9.83409700e-04 1.48467463e-03 1.98664004e-03 2.48706318e-03 2.98566790e-03 3.48363188e-03 3.97674507e-03 4.46015643e-03 4.94117616e-03 5.42711327e-03 5.91551000e-03 6.40390627e-03 6.89252606e-03 7.38552725e-03 7.88662117e-03 8.39164946e-03 8.89667682e-03 9.40063223e-03 9.90244094e-03 1.04031768e-02 1.09039126e-02 1.14046484e-02 1.19087826e-02 1.24197118e-02 1.29340393e-02 1.34483669e-02 1.39626944e-02 1.44759482e-02 1.49870571e-02 1.54970922e-02 1.59891397e-02 1.64392292e-02 1.68616083e-02 1.72929689e-02 1.77419633e-02 1.81903169e-02 1.86331104e-02 1.90771557e-02 1.95237044e-02 1.99715067e-02 2.04193071e-02 2.08810344e-02 2.13771425e-02 2.18982585e-02 2.24122070e-02 2.28994992e-02 2.33658999e-02 2.38291994e-02 2.43070442e-02 2.48069614e-02 2.53177565e-02 2.58204006e-02 2.63076033e-02 2.67896969e-02 2.72751562e-02 2.77623013e-02 2.82494463e-02 2.87365913e-02 2.92269550e-02 2.97251269e-02 3.02294251e-02 3.07317562e-02 3.12257037e-02 3.17153744e-02 3.22114602e-02 3.27173509e-02 3.32284905e-02 3.37426998e-02 3.42591703e-02 3.47751677e-02 3.52894366e-02 3.58008780e-02 3.63082848e-02 3.68136689e-02 3.73190567e-02 3.78244407e-02 3.83173972e-02 3.88103537e-02 3.93157415e-02 3.98213938e-02 4.03236970e-02 4.08188887e-02 4.13467623e-02 4.19247523e-02 4.25197370e-02 4.31177579e-02 4.37157787e-02 4.42907326e-02 4.48195450e-02 4.53252867e-02 4.58270982e-02 4.63210382e-02 4.68110442e-02 4.72949445e-02 4.77666445e-02 4.82601374e-02 4.88198884e-02 4.94275875e-02 5.00195995e-02 5.05619124e-02 5.10798171e-02 5.15977219e-02 5.21156266e-02 5.26563302e-02 5.32486588e-02 5.38650714e-02 5.44384420e-02 5.49459755e-02 5.54259680e-02 5.59059568e-02 5.63904196e-02 5.68879358e-02 5.73981516e-02 5.79124764e-02 5.84268048e-02 5.89411333e-02 5.94554618e-02 5.99810556e-02 6.05321005e-02 6.10948354e-02 6.16358668e-02 6.21439368e-02 6.26382306e-02 6.31325319e-02 6.36268258e-02 6.41395450e-02 6.46891072e-02 6.52570799e-02 6.58313632e-02 6.64182529e-02 6.70114458e-02 6.76046386e-02 6.81873262e-02 6.87490031e-02 6.93001673e-02 6.98485374e-02 7.03901723e-02 7.09271803e-02 7.14661255e-02 7.20098019e-02 7.25556090e-02 7.31028393e-02 7.36543611e-02 7.42116123e-02 7.47731552e-02 7.53361210e-02 7.59012401e-02 7.64706433e-02 7.70421997e-02 7.76137561e-02 7.81853124e-02 7.87594989e-02 7.93389678e-02 7.99164250e-02 8.04845840e-02 8.10375363e-02 8.15684944e-02 8.20727646e-02 8.25617835e-02 8.30380246e-02 8.35002214e-02 8.39870498e-02 8.45115706e-02 8.50597024e-02 8.56251717e-02 8.62017348e-02 8.67934972e-02 8.74069408e-02 8.80325213e-02 8.86477083e-02 8.92441794e-02 8.98159146e-02 9.03546214e-02 9.08768177e-02 9.13990140e-02 9.19212103e-02 9.24434066e-02 9.29656029e-02 9.34885144e-02 9.40128565e-02 9.45565626e-02 9.51375440e-02 9.57446918e-02 9.63668525e-02 9.70178097e-02 9.77117494e-02 9.84073505e-02 9.90193412e-02 9.95245874e-02 9.99866948e-02 1.00448802e-01 1.00910909e-01 1.01403601e-01 1.01957448e-01 1.02541879e-01 1.03126310e-01 1.03699297e-01 1.04249388e-01 1.04788043e-01 1.05321333e-01 1.05842508e-01 1.06358096e-01 1.06883921e-01 1.07425347e-01 1.07973300e-01 1.08544029e-01 1.09169401e-01 1.09826081e-01 1.10444367e-01 1.10996552e-01 1.11520477e-01 1.12049334e-01 1.12588055e-01 1.13137342e-01 1.13700047e-01 1.14271335e-01 1.14837252e-01 1.15380913e-01 1.15897208e-01 1.16402231e-01 1.16907261e-01 1.17431112e-01 1.18003696e-01 1.18620314e-01 1.19249098e-01 1.19856015e-01 1.20428152e-01 1.20985396e-01 1.21542647e-01 1.22099891e-01 1.22663125e-01 1.23240285e-01 1.23825312e-01 1.24402113e-01 1.24964722e-01 1.25521258e-01 1.26067057e-01 1.26591399e-01 1.27105013e-01 1.27617821e-01 1.28128827e-01 1.28640294e-01 1.29158199e-01 1.29684508e-01 1.30213052e-01 1.30739272e-01 1.31264329e-01 1.31789386e-01 1.32324100e-01 1.32878140e-01 1.33441821e-01 1.34005502e-01 1.34569198e-01 1.35105342e-01 1.35573402e-01 1.35989383e-01 1.36411309e-01 1.36861458e-01 1.37317821e-01 1.37793288e-01 1.38323069e-01 1.38888732e-01 1.39443755e-01 1.39969811e-01 1.40482709e-01 1.40995607e-01 1.41522273e-01 1.42076492e-01 1.42644465e-01 1.43212438e-01 1.43775061e-01 1.44326940e-01 1.44873455e-01 1.45419970e-01 1.45967022e-01 1.46515146e-01 1.47063822e-01 1.47612482e-01 1.48164541e-01 1.48723394e-01 1.49285659e-01 1.49847910e-01 1.50403008e-01 1.50943801e-01 1.51477441e-01 1.52011082e-01 1.52548477e-01 1.53093398e-01 1.53642058e-01 1.54192179e-01 1.54745191e-01 1.55270875e-01 1.55736387e-01 1.56162530e-01 1.56577528e-01 1.56996265e-01 1.57426551e-01 1.57884002e-01 1.58386528e-01 1.58911586e-01 1.59436643e-01 1.59956336e-01 1.60465300e-01 1.60968900e-01 1.61472499e-01 1.61976084e-01 1.62488803e-01 1.63019761e-01 1.63559854e-01 1.64099932e-01 1.64640009e-01 1.65139496e-01 1.65557787e-01 1.65935487e-01 1.66313186e-01 1.66728631e-01 1.67237818e-01 1.67819887e-01 1.68396667e-01 1.68930426e-01 1.69443309e-01 1.69956207e-01 1.70479089e-01 1.71027139e-01 1.71597734e-01 1.72177151e-01 1.72753483e-01 1.73316538e-01 1.73865885e-01 1.74410254e-01 1.74954623e-01 1.75499007e-01 1.76027998e-01 1.76526219e-01 1.77009076e-01 1.77491933e-01 1.77974790e-01 1.78479686e-01 1.79037958e-01 1.79636508e-01 1.80229530e-01 1.80793807e-01 1.81321517e-01 1.81814358e-01 1.82304546e-01 1.82804555e-01 1.83304578e-01 1.83818191e-01 1.84358984e-01 1.84913367e-01 1.85467765e-01 1.86022148e-01 1.86575994e-01 1.87128767e-01 1.87681019e-01 1.88233256e-01 1.88785493e-01 1.89323246e-01 1.89826667e-01 1.90304875e-01 1.90777704e-01 1.91250548e-01 1.91746458e-01 1.92298040e-01 1.92886755e-01 1.93455696e-01 1.93963289e-01 1.94422722e-01 1.94893718e-01 1.95430234e-01 1.96038440e-01 1.96669325e-01 1.97250560e-01 1.97739080e-01 1.98168248e-01 1.98622242e-01 1.99143618e-01 1.99692830e-01 2.00208098e-01 2.00664952e-01 2.01095596e-01 2.01563895e-01 2.02086985e-01 2.02624619e-01 2.03156829e-01 2.03689039e-01 2.04223037e-01 2.04760626e-01 2.05299988e-01 2.05839351e-01 2.06378713e-01 2.06931308e-01 2.07510382e-01 2.08102673e-01 2.08694980e-01 2.09287271e-01 2.09862947e-01 2.10405350e-01 2.10931122e-01 2.11456895e-01 2.11979628e-01 2.12496281e-01 2.12995082e-01 2.13458478e-01 2.13898674e-01 2.14351699e-01 2.14832351e-01 2.15325221e-01 2.15818077e-01 2.16310948e-01 2.16806144e-01 2.17305988e-01 2.17808142e-01 2.18310311e-01 2.18812481e-01 2.19318867e-01 2.19835266e-01 2.20358014e-01 2.20876560e-01 2.21386701e-01 2.21893162e-01 2.22399622e-01 2.22906083e-01 2.23412544e-01 2.23899499e-01 2.24347487e-01 2.24775970e-01 2.25204453e-01 2.25642785e-01 2.26100773e-01 2.26568609e-01 2.27036431e-01 2.27504268e-01 2.27969587e-01 2.28429914e-01 2.28887722e-01 2.29345545e-01 2.29808360e-01 2.30281204e-01 2.30759054e-01 2.31227830e-01 2.31674641e-01 2.32126385e-01 2.32627019e-01 2.33162493e-01 2.33663797e-01 2.34085873e-01 2.34466314e-01 2.34879777e-01 2.35345945e-01 2.35825419e-01 2.36298978e-01 2.36772537e-01 2.37246081e-01 2.37719640e-01 2.38202482e-01 2.38703936e-01 2.39214689e-01 2.39725441e-01 2.40236193e-01 2.40746945e-01 2.41253585e-01 2.41751999e-01 2.42246285e-01 2.42740586e-01 2.43234888e-01 2.43732229e-01 2.44235650e-01 2.44742095e-01 2.45248556e-01 2.45757699e-01 2.46272206e-01 2.46789396e-01 2.47306585e-01 2.47823775e-01 2.48342574e-01 2.48864591e-01 2.49388218e-01 2.49911845e-01 2.50435472e-01 2.50962704e-01 2.51497477e-01 2.52034098e-01 2.52561301e-01 2.53076136e-01 2.53567189e-01 2.54015982e-01 2.54445940e-01 2.54913986e-01 2.55443811e-01 2.55996674e-01 2.56507069e-01 2.56952554e-01 2.57370293e-01 2.57788062e-01 2.58193612e-01 2.58572757e-01 2.58944213e-01 2.59349138e-01 2.59799749e-01 2.60269016e-01 2.60738283e-01 2.61207521e-01 2.61684835e-01 2.62178242e-01 2.62679696e-01 2.63180465e-01 2.63679922e-01 2.64185667e-01 2.64707863e-01 2.65240073e-01 2.65764415e-01 2.66273916e-01 2.66775668e-01 2.67274827e-01 2.67772704e-01 2.68270582e-01 2.68768460e-01 2.69271523e-01 2.69784957e-01 2.70303577e-01 2.70819128e-01 2.71328509e-01 2.71842957e-01 2.72375405e-01 2.72914767e-01 2.73435414e-01 2.73929209e-01 2.74414986e-01 2.74907976e-01 2.75405139e-01 2.75895774e-01 2.76372820e-01 2.76844203e-01 2.77326554e-01 2.77825415e-01 2.78331161e-01 2.78836906e-01 2.79346585e-01 2.79864192e-01 2.80394852e-01 2.80947089e-01 2.81512678e-01 2.82067031e-01 2.82599628e-01 2.83122540e-01 2.83645451e-01 2.84164280e-01 2.84675002e-01 2.85181642e-01 2.85688281e-01 2.86206305e-01 2.86747158e-01 2.87299395e-01 2.87851632e-01 2.88373113e-01 2.88833082e-01 2.89262265e-01 2.89691478e-01 2.90137470e-01 2.90627986e-01 2.91151106e-01 2.91660279e-01 2.92142242e-01 2.92627275e-01 2.93135226e-01 2.93658406e-01 2.94172019e-01 2.94659704e-01 2.95134664e-01 2.95609653e-01 2.96084642e-01 2.96559632e-01 2.97034621e-01 2.97520339e-01 2.98027515e-01 2.98545390e-01 2.99063295e-01 2.99581558e-01 3.00100535e-01 3.00619870e-01 3.01139206e-01 3.01657170e-01 3.02171588e-01 3.02683860e-01 3.03208292e-01 3.03756267e-01 3.04315656e-01 3.04875076e-01 3.05405498e-01 3.05877954e-01 3.06321472e-01 3.06764990e-01 3.07215661e-01 3.07681561e-01 3.08156073e-01 3.08616519e-01 3.09046000e-01 3.09463382e-01 3.09907347e-01 3.10392350e-01 3.10895950e-01 3.11386406e-01 3.11854303e-01 3.12314242e-01 3.12777519e-01 3.13242495e-01 3.13709050e-01 3.14178854e-01 3.14650267e-01 3.15125793e-01 3.15609545e-01 3.16100836e-01 3.16599011e-01 3.17097217e-01 3.17588508e-01 3.18075478e-01 3.18560660e-01 3.19044948e-01 3.19524229e-01 3.19993466e-01 3.20457727e-01 3.20921987e-01 3.21390688e-01 3.21847200e-01 3.22259486e-01 3.22645754e-01 3.23060036e-01 3.23518902e-01 3.23996037e-01 3.24472606e-01 3.24948132e-01 3.25425446e-01 3.25908303e-01 3.26394737e-01 3.26879025e-01 3.27359706e-01 3.27840418e-01 3.28321844e-01 3.28801125e-01 3.29277366e-01 3.29761028e-01 3.30264956e-01 3.30780447e-01 3.31284344e-01 3.31768036e-01 3.32242996e-01 3.32714438e-01 3.33178073e-01 3.33639115e-01 3.34109217e-01 3.34591895e-01 3.35079759e-01 3.35567623e-01 3.36055487e-01 3.36542428e-01 3.37027609e-01 3.37511897e-01 3.37996185e-01 3.38480473e-01 3.38966876e-01 3.39457512e-01 3.39938074e-01 3.40389937e-01 3.40824157e-01 3.41269583e-01 3.41736317e-01 3.42212021e-01 3.42687845e-01 3.43163878e-01 3.43656749e-01 3.44185561e-01 3.44728738e-01 3.45242560e-01 3.45718950e-01 3.46186787e-01 3.46658915e-01 3.47124785e-01 3.47578108e-01 3.48025203e-01 3.48469496e-01 3.48906934e-01 3.49347800e-01 3.49810332e-01 3.50292981e-01 3.50779414e-01 3.51258457e-01 3.51727456e-01 3.52191001e-01 3.52660269e-01 3.53150636e-01 3.53664070e-01 3.54184657e-01 3.54703993e-01 3.55223328e-01 3.55725259e-01 3.56186330e-01 3.56623024e-01 3.57080489e-01 3.57576191e-01 3.58088374e-01 3.58600557e-01 3.59112740e-01 3.59615058e-01 3.60097736e-01 3.60570580e-01 3.61043423e-01 3.61516267e-01 3.61996979e-01 3.62493396e-01 3.62997711e-01 3.63502026e-01 3.64002049e-01 3.64490449e-01 3.64968479e-01 3.65443468e-01 3.65918458e-01 3.66393417e-01 3.66863668e-01 3.67322803e-01 3.67777765e-01 3.68248314e-01 3.68741751e-01 3.69242162e-01 3.69737536e-01 3.70222896e-01 3.70693237e-01 3.71156067e-01 3.71618867e-01 3.72075438e-01 3.72514844e-01 3.72939020e-01 3.73364657e-01 3.73801380e-01 3.74240309e-01 3.74673009e-01 3.75102580e-01 3.75532120e-01 3.75966787e-01 3.76411647e-01 3.76866400e-01 3.77330780e-01 3.77789259e-01 3.78224432e-01 3.78652185e-01 3.79108101e-01 3.79602879e-01 3.80108744e-01 3.80605012e-01 3.81096423e-01 3.81582946e-01 3.82059634e-01 3.82531404e-01 3.82993788e-01 3.83437365e-01 3.83916467e-01 3.84485334e-01 3.85059416e-01 3.85554045e-01 3.86025637e-01 3.86530489e-01 3.87038738e-01 3.87520522e-01 3.87985498e-01 3.88443321e-01 3.88897538e-01 3.89351785e-01 3.89806032e-01 3.90255243e-01 3.90713781e-01 3.91205937e-01 3.91717404e-01 3.92228872e-01 3.92740339e-01 3.93251806e-01 3.93754870e-01 3.94241124e-01 3.94704968e-01 3.95140827e-01 3.95576686e-01 3.96040529e-01 3.96521062e-01 3.97006959e-01 3.97495538e-01 3.97984117e-01 3.98473769e-01 3.98965567e-01 3.99458438e-01 3.99951279e-01 4.00444150e-01 4.00912702e-01 4.01332617e-01 4.01763409e-01 4.02264684e-01 4.02801186e-01 4.03337687e-01 4.03874189e-01 4.04410690e-01 4.04954374e-01 4.05512333e-01 4.06077445e-01 4.06642556e-01 4.07207668e-01 4.07735944e-01 4.08190548e-01 4.08647120e-01 4.09181297e-01 4.09760714e-01 4.10353005e-01 4.10951734e-01 4.11550492e-01 4.12114710e-01 4.12609905e-01 4.13070560e-01 4.13531244e-01 4.13991928e-01 4.14452702e-01 4.14913654e-01 4.15376544e-01 4.15843219e-01 4.16311771e-01 4.16780323e-01 4.17248845e-01 4.17725086e-01 4.18216705e-01 4.18732107e-01 4.19279695e-01 4.19843376e-01 4.20407057e-01 4.20970768e-01 4.21537131e-01 4.22108859e-01 4.22683269e-01 4.23257679e-01 4.23804730e-01 4.24297065e-01 4.24762040e-01 4.25227016e-01 4.25691992e-01 4.26171958e-01 4.26686823e-01 4.27225649e-01 4.27757889e-01 4.28268611e-01 4.28769171e-01 4.29279745e-01 4.29808021e-01 4.30344522e-01 4.30881023e-01 4.31428432e-01 4.32001799e-01 4.32591945e-01 4.33172077e-01 4.33704853e-01 4.34175521e-01 4.34619755e-01 4.35061097e-01 4.35496747e-01 4.35948312e-01 4.36437428e-01 4.36945319e-01 4.37453210e-01 4.37970191e-01 4.38505471e-01 4.39049840e-01 4.39594209e-01 4.40140784e-01 4.40691084e-01 4.41238493e-01 4.41771179e-01 4.42285687e-01 4.42790478e-01 4.43280190e-01 4.43742752e-01 4.44199800e-01 4.44695592e-01 4.45242256e-01 4.45809513e-01 4.46376771e-01 4.46944028e-01 4.47511286e-01 4.48088139e-01 4.48686063e-01 4.49293137e-01 4.49883282e-01 4.50448453e-01 4.50994223e-01 4.51521903e-01 4.52040493e-01 4.52559114e-01 4.53077734e-01 4.53596354e-01 4.54118192e-01 4.54646468e-01 4.55177963e-01 4.55709457e-01 4.56240982e-01 4.56774205e-01 4.57311600e-01 4.57846910e-01 4.58368748e-01 4.58877981e-01 4.59386289e-01 4.59899902e-01 4.60421056e-01 4.60954875e-01 4.61497873e-01 4.62035388e-01 4.62560445e-01 4.63058740e-01 4.63507503e-01 4.63927835e-01 4.64376152e-01 4.64873672e-01 4.65393364e-01 4.65915203e-01 4.66435432e-01 4.66950297e-01 4.67458189e-01 4.67957497e-01 4.68452513e-01 4.68947530e-01 4.69442546e-01 4.69953984e-01 4.70504820e-01 4.71081495e-01 4.71644104e-01 4.72176224e-01 4.72694844e-01 4.73213464e-01 4.73732084e-01 4.74250704e-01 4.74771649e-01 4.75297242e-01 4.75825161e-01 4.76353079e-01 4.76880997e-01 4.77403015e-01 4.77913231e-01 4.78417516e-01 4.78921831e-01 4.79426146e-01 4.79934931e-01 4.80452657e-01 4.80974853e-01 4.81497049e-01 4.82021034e-01 4.82548594e-01 4.83077943e-01 4.83607292e-01 4.84140277e-01 4.84681696e-01 4.85227048e-01 4.85760957e-01 4.86275852e-01 4.86782312e-01 4.87288773e-01 4.87795234e-01 4.88304377e-01 4.88818884e-01 4.89336073e-01 4.89853263e-01 4.90370452e-01 4.90894794e-01 4.91434932e-01 4.91981149e-01 4.92510915e-01 4.93017107e-01 4.93513554e-01 4.94010001e-01 4.94503945e-01 4.94992852e-01 4.95479286e-01 4.95965719e-01 4.96452153e-01 4.96938586e-01 4.97433543e-01 4.97945607e-01 4.98467654e-01 4.98994470e-01 4.99526143e-01 5.00057101e-01 5.00583589e-01 5.01103818e-01 5.01613319e-01 5.02113700e-01 5.02611578e-01 5.03109455e-01 5.03607333e-01 5.04101396e-01 5.04585683e-01 5.05062342e-01 5.05540907e-01 5.06026208e-01 5.06515682e-01 5.07007301e-01 5.07502079e-01 5.08001626e-01 5.08503020e-01 5.08998692e-01 5.09484410e-01 5.09967268e-01 5.10461807e-01 5.10972857e-01 5.11490524e-01 5.12007892e-01 5.12525082e-01 5.13034761e-01 5.13529181e-01 5.14015734e-01 5.14502645e-01 5.14989793e-01 5.15476942e-01 5.15968025e-01 5.16468525e-01 5.16975164e-01 5.17478168e-01 5.17973900e-01 5.18466771e-01 5.18960178e-01 5.19453883e-01 5.19945681e-01 5.20431399e-01 5.20910203e-01 5.21386862e-01 5.21868050e-01 5.22355258e-01 5.22844076e-01 5.23331821e-01 5.23818135e-01 5.24305820e-01 5.24799883e-01 5.25297046e-01 5.25788248e-01 5.26271403e-01 5.26751399e-01 5.27229071e-01 5.27702093e-01 5.28169990e-01 5.28632224e-01 5.29090643e-01 5.29547155e-01 5.30016959e-01 5.30521214e-01 5.31049132e-01 5.31570852e-01 5.32075822e-01 5.32563865e-01 5.33032238e-01 5.33490777e-01 5.33949316e-01 5.34411430e-01 5.34880698e-01 5.35353541e-01 5.35826385e-01 5.36300242e-01 5.36775887e-01 5.37253618e-01 5.37741244e-01 5.38246691e-01 5.38761795e-01 5.39268255e-01 5.39759219e-01 5.40243506e-01 5.40727794e-01 5.41212082e-01 5.41692615e-01 5.42165637e-01 5.42634904e-01 5.43104112e-01 5.43573380e-01 5.44042647e-01 5.44522285e-01 5.45030534e-01 5.45564890e-01 5.46098530e-01 5.46617091e-01 5.47118127e-01 5.47590375e-01 5.48040390e-01 5.48491955e-01 5.48966527e-01 5.49472332e-01 5.49991190e-01 5.50492048e-01 5.50956964e-01 5.51402628e-01 5.51874757e-01 5.52393556e-01 5.52929103e-01 5.53458154e-01 5.53983927e-01 5.54495394e-01 5.54978251e-01 5.55446804e-01 5.55915356e-01 5.56383908e-01 5.56852460e-01 5.57321012e-01 5.57801366e-01 5.58305264e-01 5.58821023e-01 5.59336782e-01 5.59852540e-01 5.60360789e-01 5.60854018e-01 5.61339736e-01 5.61825454e-01 5.62314332e-01 5.62804401e-01 5.63285828e-01 5.63761294e-01 5.64249456e-01 5.64764500e-01 5.65295398e-01 5.65817952e-01 5.66325128e-01 5.66826403e-01 5.67329109e-01 5.67834854e-01 5.68342030e-01 5.68851352e-01 5.69366753e-01 5.69887519e-01 5.70409894e-01 5.70931852e-01 5.71455359e-01 5.71983099e-01 5.72513163e-01 5.73051035e-01 5.73605716e-01 5.74165046e-01 5.74702263e-01 5.75209439e-01 5.75704455e-01 5.76199472e-01 5.76699853e-01 5.77210963e-01 5.77727437e-01 5.78243911e-01 5.78760386e-01 5.79279840e-01 5.79795718e-01 5.80291331e-01 5.80769897e-01 5.81252217e-01 5.81747890e-01 5.82246780e-01 5.82739770e-01 5.83229780e-01 5.83727479e-01 5.84240556e-01 5.84761322e-01 5.85282087e-01 5.85801065e-01 5.86320221e-01 5.86845279e-01 5.87372482e-01 5.87889671e-01 5.88390887e-01 5.88882446e-01 5.89379430e-01 5.89890897e-01 5.90408087e-01 5.90913713e-01 5.91401577e-01 5.91881573e-01 5.92359424e-01 5.92832983e-01 5.93304396e-01 5.93775809e-01 5.94247222e-01 5.94718635e-01 5.95194399e-01 5.95678926e-01 5.96169770e-01 5.96664310e-01 5.97160757e-01 5.97657204e-01 5.98156869e-01 5.98662972e-01 5.99172294e-01 5.99681616e-01 6.00188315e-01 6.00685596e-01 6.01172030e-01 6.01652741e-01 6.02131248e-01 6.02610230e-01 6.03090227e-01 6.03570223e-01 6.04050159e-01 6.04530156e-01 6.05031967e-01 6.05553448e-01 6.06072783e-01 6.06564164e-01 6.07039034e-01 6.07559502e-01 6.08085036e-01 6.08581483e-01 6.09077930e-01 6.09574378e-01 6.10070825e-01 6.10567272e-01 6.11063719e-01 6.11560166e-01 6.12056613e-01 6.12562895e-01 6.13088846e-01 6.13624632e-01 6.14160419e-01 6.14696205e-01 6.15224302e-01 6.15737021e-01 6.16237402e-01 6.16728485e-01 6.17215693e-01 6.17704511e-01 6.18197203e-01 6.18696630e-01 6.19200289e-01 6.19704604e-01 6.20210171e-01 6.20718241e-01 6.21227562e-01 6.21736884e-01 6.22246206e-01 6.22753203e-01 6.23255551e-01 6.23755574e-01 6.24255598e-01 6.24755621e-01 6.25255644e-01 6.25755012e-01 6.26253009e-01 6.26750350e-01 6.27244949e-01 6.27734125e-01 6.28224134e-01 6.28721237e-01 6.29218400e-01 6.29708409e-01 6.30198300e-01 6.30695045e-01 6.31199002e-01 6.31710470e-01 6.32230341e-01 6.32760525e-01 6.33294940e-01 6.33818388e-01 6.34325385e-01 6.34822547e-01 6.35313988e-01 6.35802567e-01 6.36291146e-01 6.36785984e-01 6.37293339e-01 6.37806952e-01 6.38320565e-01 6.38832569e-01 6.39341354e-01 6.39848173e-01 6.40354276e-01 6.40860021e-01 6.41365767e-01 6.41871512e-01 6.42374098e-01 6.42870367e-01 6.43356800e-01 6.43829048e-01 6.44297361e-01 6.44782603e-01 6.45289719e-01 6.45804226e-01 6.46316946e-01 6.46827877e-01 6.47333443e-01 6.47830009e-01 6.48322165e-01 6.48814321e-01 6.49301112e-01 6.49777174e-01 6.50247872e-01 6.50718570e-01 6.51194274e-01 6.51679993e-01 6.52170718e-01 6.52661443e-01 6.53152168e-01 6.53637707e-01 6.54112816e-01 6.54586554e-01 6.55067801e-01 6.55552804e-01 6.56037807e-01 6.56522810e-01 6.57012641e-01 6.57512128e-01 6.58018053e-01 6.58527195e-01 6.59037948e-01 6.59548700e-01 6.60059452e-01 6.60570204e-01 6.61080956e-01 6.61590099e-01 6.62096024e-01 6.62600338e-01 6.63104653e-01 6.63608968e-01 6.64113939e-01 6.64618373e-01 6.65119827e-01 6.65620804e-01 6.66127324e-01 6.66640520e-01 6.67156279e-01 6.67672038e-01 6.68188155e-01 6.68705165e-01 6.69222713e-01 6.69738472e-01 6.70250595e-01 6.70760632e-01 6.71268106e-01 6.71770871e-01 6.72271252e-01 6.72771633e-01 6.73272610e-01 6.73774898e-01 6.74277782e-01 6.74780667e-01 6.75283551e-01 6.75785363e-01 6.76285028e-01 6.76783621e-01 6.77276850e-01 6.77759349e-01 6.78236425e-01 6.78711772e-01 6.79185629e-01 6.79661751e-01 6.80148423e-01 6.80651963e-01 6.81163967e-01 6.81675971e-01 6.82182968e-01 6.82677627e-01 6.83164418e-01 6.83658302e-01 6.84166670e-01 6.84682429e-01 6.85191512e-01 6.85687900e-01 6.86178505e-01 6.86669528e-01 6.87162340e-01 6.87658846e-01 6.88160181e-01 6.88664436e-01 6.89166665e-01 6.89665437e-01 6.90164745e-01 6.90665722e-01 6.91165447e-01 6.91662967e-01 6.92162514e-01 6.92669451e-01 6.93181634e-01 6.93692565e-01 6.94200337e-01 6.94704413e-01 6.95203066e-01 6.95698202e-01 6.96192384e-01 6.96687937e-01 6.97184622e-01 6.97684824e-01 6.98192537e-01 6.98704004e-01 6.99215412e-01 6.99724197e-01 7.00225532e-01 7.00720549e-01 7.01216519e-01 7.01717556e-01 7.02223539e-01 7.02732444e-01 7.03245580e-01 7.03764200e-01 7.04280555e-01 7.04792976e-01 7.05298603e-01 7.05788374e-01 7.06269085e-01 7.06759453e-01 7.07267046e-01 7.07782209e-01 7.08298445e-01 7.08816051e-01 7.09332883e-01 7.09848642e-01 7.10364401e-01 7.10877657e-01 7.11384773e-01 7.11887181e-01 7.12392569e-01 7.12905824e-01 7.13420808e-01 7.13926077e-01 7.14418948e-01 7.14906812e-01 7.15387702e-01 7.15853512e-01 7.16314793e-01 7.16794908e-01 7.17300832e-01 7.17817307e-01 7.18333781e-01 7.18850255e-01 7.19366729e-01 7.19883561e-01 7.20401108e-01 7.20919013e-01 7.21436918e-01 7.21954823e-01 7.22464681e-01 7.22958386e-01 7.23443866e-01 7.23928750e-01 7.24413753e-01 7.24904239e-01 7.25406468e-01 7.25917220e-01 7.26426542e-01 7.26929605e-01 7.27428794e-01 7.27926373e-01 7.28420258e-01 7.28907645e-01 7.29391932e-01 7.29880631e-01 7.30375648e-01 7.30872869e-01 7.31374979e-01 7.31887817e-01 7.32406437e-01 7.32919335e-01 7.33420789e-01 7.33915091e-01 7.34411538e-01 7.34914243e-01 7.35419154e-01 7.35922694e-01 7.36425579e-01 7.36927629e-01 7.37429142e-01 7.37935007e-01 7.38448143e-01 7.38963902e-01 7.39476264e-01 7.39982903e-01 7.40485072e-01 7.40987718e-01 7.41495371e-01 7.42005706e-01 7.42513120e-01 7.43015110e-01 7.43512273e-01 7.44007468e-01 7.44502664e-01 7.45001018e-01 7.45505750e-01 7.46013641e-01 7.46521533e-01 7.47029364e-01 7.47536302e-01 7.48041391e-01 7.48543203e-01 7.49040008e-01 7.49534190e-01 7.50030994e-01 7.50532568e-01 7.51036167e-01 7.51539767e-01 7.52043307e-01 7.52546787e-01 7.53048956e-01 7.53549695e-01 7.54051566e-01 7.54554212e-01 7.55056381e-01 7.55558550e-01 7.56060719e-01 7.56562889e-01 7.57065058e-01 7.57562220e-01 7.58049369e-01 7.58531451e-01 7.59013593e-01 7.59498239e-01 7.59987891e-01 7.60484159e-01 7.60990500e-01 7.61503398e-01 7.62010217e-01 7.62505054e-01 7.62995183e-01 7.63487220e-01 7.63981402e-01 7.64476418e-01 7.64971435e-01 7.65466452e-01 7.65961468e-01 7.66453624e-01 7.66940057e-01 7.67423630e-01 7.67907202e-01 7.68390775e-01 7.68877745e-01 7.69371450e-01 7.69868612e-01 7.70367682e-01 7.70870566e-01 7.71372974e-01 7.71866560e-01 7.72348702e-01 7.72827983e-01 7.73316622e-01 7.73817122e-01 7.74322867e-01 7.74830043e-01 7.75337934e-01 7.75845826e-01 7.76353180e-01 7.76859462e-01 7.77364075e-01 7.77866423e-01 7.78369725e-01 7.78877378e-01 7.79385984e-01 7.79890180e-01 7.80388534e-01 7.80883551e-01 7.81381667e-01 7.81885505e-01 7.82390594e-01 7.82893956e-01 7.83395529e-01 7.83895910e-01 7.84399688e-01 7.84911871e-01 7.85427749e-01 7.85934746e-01 7.86429763e-01 7.86921501e-01 7.87414372e-01 7.87907422e-01 7.88401008e-01 7.88895130e-01 7.89389431e-01 7.89883733e-01 7.90378034e-01 7.90872335e-01 7.91366637e-01 7.91861713e-01 7.92358279e-01 7.92856216e-01 7.93355465e-01 7.93854654e-01 7.94352651e-01 7.94849575e-01 7.95345724e-01 7.95841396e-01 7.96337128e-01 7.96832860e-01 7.97328591e-01 7.97824323e-01 7.98319697e-01 7.98814356e-01 7.99308658e-01 7.99802959e-01 8.00300300e-01 8.00803721e-01 8.01310182e-01 8.01816642e-01 8.02322209e-01 8.02825987e-01 8.03328872e-01 8.03831756e-01 8.04334641e-01 8.04837525e-01 8.05340409e-01 8.05843294e-01 8.06346178e-01 8.06849003e-01 8.07351887e-01 8.07854772e-01 8.08357656e-01 8.08861971e-01 8.09369147e-01 8.09877753e-01 8.10386360e-01 8.10894787e-01 8.11402857e-01 8.11908722e-01 8.12409222e-01 8.12904239e-01 8.13396275e-01 8.13889503e-01 8.14386249e-01 8.14885974e-01 8.15389037e-01 8.15893948e-01 8.16396654e-01 8.16895127e-01 8.17390859e-01 8.17885876e-01 8.18381608e-01 8.18878591e-01 8.19376051e-01 8.19874167e-01 8.20373118e-01 8.20872068e-01 8.21371913e-01 8.21872652e-01 8.22373390e-01 8.22875202e-01 8.23379159e-01 8.23884189e-01 8.24389219e-01 8.24894249e-01 8.25398326e-01 8.25900614e-01 8.26399028e-01 8.26891184e-01 8.27381909e-01 8.27881217e-01 8.28392684e-01 8.28911364e-01 8.29430699e-01 8.29943478e-01 8.30447793e-01 8.30950320e-01 8.31453919e-01 8.31957519e-01 8.32461119e-01 8.32964718e-01 8.33468318e-01 8.33972096e-01 8.34476233e-01 8.34980547e-01 8.35484862e-01 8.35988462e-01 8.36490631e-01 8.36992085e-01 8.37493539e-01 8.37994993e-01 8.38496447e-01 8.38998675e-01 8.39502871e-01 8.40007842e-01 8.40511322e-01 8.41012299e-01 8.41510653e-01 8.42005193e-01 8.42498004e-01 8.42993975e-01 8.43494833e-01 8.43997717e-01 8.44500601e-01 8.45003724e-01 8.45507145e-01 8.46010566e-01 8.46512914e-01 8.47014010e-01 8.47514927e-01 8.48015845e-01 8.48517954e-01 8.49021554e-01 8.49525869e-01 8.50030541e-01 8.50535214e-01 8.51038456e-01 8.51538956e-01 8.52037787e-01 8.52535963e-01 8.53033841e-01 8.53531718e-01 8.54029596e-01 8.54527473e-01 8.55025351e-01 8.55523765e-01 8.56023252e-01 8.56523275e-01 8.57023299e-01 8.57523322e-01 8.58023107e-01 8.58522475e-01 8.59021544e-01 8.59520674e-01 8.60019267e-01 8.60516429e-01 8.61012876e-01 8.61508965e-01 8.62004459e-01 8.62500906e-01 8.63000453e-01 8.63502204e-01 8.64003837e-01 8.64504337e-01 8.65004361e-01 8.65504384e-01 8.66004765e-01 8.66506934e-01 8.67011607e-01 8.67517352e-01 8.68023098e-01 8.68528843e-01 8.69034588e-01 8.69540334e-01 8.70045424e-01 8.70549440e-01 8.71052980e-01 8.71553957e-01 8.72049451e-01 8.72542262e-01 8.73038054e-01 8.73539090e-01 8.74043882e-01 8.74548197e-01 8.75050426e-01 8.75552952e-01 8.76056731e-01 8.76559079e-01 8.77057195e-01 8.77551556e-01 8.78044367e-01 8.78537476e-01 8.79033506e-01 8.79533708e-01 8.80035877e-01 8.80538285e-01 8.81041169e-01 8.81542802e-01 8.82040858e-01 8.82536232e-01 8.83030891e-01 8.83525729e-01 8.84021044e-01 8.84516835e-01 8.85013044e-01 8.85509491e-01 8.86005938e-01 8.86502385e-01 8.86998832e-01 8.87495279e-01 8.87996495e-01 8.88502419e-01 8.89003158e-01 8.89498889e-01 8.89994621e-01 8.90490353e-01 8.90986085e-01 8.91481996e-01 8.91978264e-01 8.92474711e-01 8.92971158e-01 8.93467605e-01 8.93964052e-01 8.94461751e-01 8.94961953e-01 8.95463407e-01 8.95964861e-01 8.96466315e-01 8.96967232e-01 8.97467077e-01 8.97966385e-01 8.98465633e-01 8.98964942e-01 8.99464250e-01 8.99963558e-01 9.00462866e-01 9.00962174e-01 9.01461482e-01 9.01960790e-01 9.02460873e-01 9.02962983e-01 9.03466761e-01 9.03970361e-01 9.04472470e-01 9.04973388e-01 9.05473769e-01 9.05973434e-01 9.06472743e-01 9.06972051e-01 9.07471359e-01 9.07971323e-01 9.08472657e-01 9.08974648e-01 9.09476638e-01 9.09978032e-01 9.10478294e-01 9.10977960e-01 9.11477625e-01 9.11977291e-01 9.12477374e-01 9.12978411e-01 9.13479865e-01 9.13981318e-01 9.14482772e-01 9.14984167e-01 9.15485620e-01 9.15987074e-01 9.16488528e-01 9.16989982e-01 9.17491436e-01 9.17992890e-01 9.18494344e-01 9.18995798e-01 9.19497073e-01 9.19997990e-01 9.20498729e-01 9.20999467e-01 9.21500206e-01 9.22000706e-01 9.22500849e-01 9.23001170e-01 9.23502743e-01 9.24005568e-01 9.24508631e-01 9.25011516e-01 9.25513327e-01 9.26012993e-01 9.26511586e-01 9.27010179e-01 9.32388365e-01 9.49152350e-01 9.72422779e-01 9.89187837e-01 9.94567931e-01 9.95068669e-01 9.95569408e-01 9.96070147e-01 9.96570826e-01 9.97071564e-01 9.97649431e-01 9.98381555e-01 9.99190748e-01 1.00000000e+00 
            </Histogram>
            <HistogramBinning NBins="1852">
              -9.99999975e-05 0.00000000e+00 1.24337360e-01 1.62906215e-01 1.94885790e-01 2.18593553e-01 2.43303508e-01 2.62191743e-01 2.77129382e-01 2.97357798e-01 3.12420040e-01 3.31071824e-01 3.44557434e-01 3.58043075e-01 3.71528655e-01 3.85014296e-01 3.98499906e-01 4.11985487e-01 4.22922283e-01 4.32213932e-01 4.45494801e-01 4.53059256e-01 4.65927958e-01 4.79413599e-01 4.86156404e-01 4.99412477e-01 5.06384850e-01 5.13333261e-01 5.26613235e-01 5.33356071e-01 5.43470263e-01 5.53584456e-01 5.60327232e-01 5.73607206e-01 5.80555737e-01 5.87298512e-01 6.00508094e-01 6.07526898e-01 6.14269733e-01 6.23548865e-01 6.33881152e-01 6.41240954e-01 6.47983730e-01 6.54726565e-01 6.64018214e-01 6.74063802e-01 6.81697786e-01 6.88440561e-01 6.95183396e-01 7.01926231e-01 7.08669066e-01 7.21822858e-01 7.24309385e-01 7.34337747e-01 7.42383122e-01 7.49125838e-01 7.55868673e-01 7.62611508e-01 7.69354284e-01 7.76097059e-01 7.82839894e-01 7.89582729e-01 7.96344578e-01 8.09439123e-01 8.16178799e-01 8.23296785e-01 8.30039561e-01 8.36397946e-01 8.43525171e-01 8.50268006e-01 8.57010782e-01 8.63753617e-01 8.70496392e-01 8.76836181e-01 8.83982062e-01 8.90315652e-01 8.97055328e-01 9.04210389e-01 9.10953224e-01 9.15159583e-01 9.24014211e-01 9.25205350e-01 9.35250938e-01 9.37924504e-01 9.44862366e-01 9.51410115e-01 9.58152950e-01 9.64895666e-01 9.71638501e-01 9.78381336e-01 9.85124111e-01 9.91411269e-01 9.95524943e-01 9.98633683e-01 1.00557065e+00 1.01514971e+00 1.01883817e+00 1.02558100e+00 1.03232384e+00 1.03906655e+00 1.04577816e+00 1.05206859e+00 1.05579889e+00 1.05932021e+00 1.06603777e+00 1.07278061e+00 1.07952332e+00 1.08626616e+00 1.09300900e+00 1.09924662e+00 1.10598636e+00 1.10649467e+00 1.11326408e+00 1.11998034e+00 1.12672305e+00 1.13346601e+00 1.13968480e+00 1.14620984e+00 1.14695144e+00 1.15369427e+00 1.16043711e+00 1.16717982e+00 1.17392266e+00 1.17634678e+00 1.18066549e+00 1.18740845e+00 1.19415116e+00 1.20089400e+00 1.20648372e+00 1.20766556e+00 1.21437955e+00 1.22112250e+00 1.22786510e+00 1.23404074e+00 1.23662078e+00 1.24135077e+00 1.24809361e+00 1.25483632e+00 1.25671208e+00 1.26157916e+00 1.26832199e+00 1.27506495e+00 1.28121877e+00 1.28684902e+00 1.28855050e+00 1.29529333e+00 1.30203605e+00 1.30817759e+00 1.30877900e+00 1.31552160e+00 1.32226443e+00 1.32839668e+00 1.33513641e+00 1.33575022e+00 1.34249282e+00 1.34861588e+00 1.34926796e+00 1.35601091e+00 1.36272120e+00 1.36946428e+00 1.37557471e+00 1.37623978e+00 1.38294971e+00 1.38969254e+00 1.39579403e+00 1.39646876e+00 1.40317810e+00 1.40927327e+00 1.41601300e+00 1.41666377e+00 1.42340648e+00 1.42949235e+00 1.43018365e+00 1.43689215e+00 1.44363499e+00 1.44971156e+00 1.45041263e+00 1.45712078e+00 1.46386337e+00 1.46767092e+00 1.47060621e+00 1.47734904e+00 1.48409200e+00 1.48776233e+00 1.49083459e+00 1.49757731e+00 1.50362909e+00 1.50432026e+00 1.51106298e+00 1.51780581e+00 1.51789927e+00 1.52454865e+00 1.53129148e+00 1.53732765e+00 1.53803420e+00 1.54477727e+00 1.55080712e+00 1.55155706e+00 1.55826271e+00 1.56500554e+00 1.56740713e+00 1.57174850e+00 1.57849109e+00 1.58450556e+00 1.58523381e+00 1.59197676e+00 1.59798503e+00 1.59871948e+00 1.60546231e+00 1.61146450e+00 1.61220515e+00 1.61894798e+00 1.62494397e+00 1.62572968e+00 1.63243377e+00 1.63842332e+00 1.63917637e+00 1.64591944e+00 1.65190279e+00 1.65270162e+00 1.65940475e+00 1.66538215e+00 1.66618741e+00 1.67289031e+00 1.67886162e+00 1.67963326e+00 1.68637598e+00 1.69311881e+00 1.69872117e+00 1.69986165e+00 1.70660448e+00 1.70876670e+00 1.71334720e+00 1.71929991e+00 1.72013128e+00 1.72683287e+00 1.73277926e+00 1.73361719e+00 1.74031854e+00 1.74706125e+00 1.74814606e+00 1.75380409e+00 1.75973809e+00 1.76058900e+00 1.76728976e+00 1.77321756e+00 1.77407503e+00 1.78077531e+00 1.78669703e+00 1.78756094e+00 1.79426098e+00 1.80017638e+00 1.80100369e+00 1.80774677e+00 1.80922341e+00 1.81448936e+00 1.82123208e+00 1.82127559e+00 1.82797492e+00 1.83387494e+00 1.83476162e+00 1.84146059e+00 1.84735429e+00 1.84824753e+00 1.85494626e+00 1.86083376e+00 1.86173344e+00 1.86843181e+00 1.87431324e+00 1.87517464e+00 1.88105297e+00 1.88196230e+00 1.88866031e+00 1.89453232e+00 1.89544833e+00 1.90214586e+00 1.90801179e+00 1.90888870e+00 1.91563153e+00 1.91972566e+00 1.92237425e+00 1.92823100e+00 1.92916334e+00 1.93585992e+00 1.93981695e+00 1.94260275e+00 1.94934559e+00 1.94986248e+00 1.95608854e+00 1.96192944e+00 1.96287799e+00 1.96957397e+00 1.97540879e+00 1.97636378e+00 1.98305941e+00 1.98310697e+00 1.98980236e+00 1.99654508e+00 1.99659288e+00 2.00328803e+00 2.00910735e+00 2.01007891e+00 2.01677370e+00 2.02018237e+00 2.02351642e+00 2.03022790e+00 2.03030777e+00 2.03700209e+00 2.04280615e+00 2.04374480e+00 2.05031943e+00 2.05053639e+00 2.05723047e+00 2.06302500e+00 2.06397343e+00 2.07071614e+00 2.07076573e+00 2.07745886e+00 2.08324432e+00 2.08425140e+00 2.09094453e+00 2.09672379e+00 2.09773755e+00 2.10443020e+00 2.11020327e+00 2.11117291e+00 2.11694288e+00 2.11796641e+00 2.12465858e+00 2.13042212e+00 2.13140154e+00 2.13716173e+00 2.13819528e+00 2.14488697e+00 2.15064120e+00 2.15162969e+00 2.15837240e+00 2.15842390e+00 2.16511536e+00 2.17086029e+00 2.17185807e+00 2.17759991e+00 2.17865300e+00 2.18534374e+00 2.19095850e+00 2.19208670e+00 2.19882941e+00 2.19888186e+00 2.20557237e+00 2.21104980e+00 2.21231508e+00 2.21803832e+00 2.21911073e+00 2.22580075e+00 2.23011613e+00 2.23254347e+00 2.23825741e+00 2.23933983e+00 2.24602914e+00 2.25019813e+00 2.25277185e+00 2.25951481e+00 2.25956869e+00 2.26625752e+00 2.27132392e+00 2.27300024e+00 2.27869582e+00 2.27979755e+00 2.28648591e+00 2.28654051e+00 2.29322886e+00 2.29891515e+00 2.29997158e+00 2.30565453e+00 2.30676961e+00 2.31345701e+00 2.31351209e+00 2.32019997e+00 2.32587361e+00 2.32699823e+00 2.33368540e+00 2.33374143e+00 2.34042835e+00 2.34609270e+00 2.34717107e+00 2.35283256e+00 2.35397029e+00 2.36065674e+00 2.36631203e+00 2.36739969e+00 2.37305164e+00 2.37419915e+00 2.38088512e+00 2.38653111e+00 2.38762808e+00 2.39327073e+00 2.39442801e+00 2.40111375e+00 2.40675020e+00 2.40785646e+00 2.41349006e+00 2.41465688e+00 2.42134213e+00 2.42696929e+00 2.42814279e+00 2.43482780e+00 2.43488574e+00 2.44157052e+00 2.44718862e+00 2.44837189e+00 2.45505619e+00 2.45511460e+00 2.46179891e+00 2.46740770e+00 2.46860075e+00 2.47528458e+00 2.47534394e+00 2.48202729e+00 2.48762679e+00 2.48882961e+00 2.49551296e+00 2.49557233e+00 2.50225568e+00 2.50784588e+00 2.50905848e+00 2.51574135e+00 2.51580143e+00 2.52248406e+00 2.52254438e+00 2.52922702e+00 2.53257155e+00 2.53596973e+00 2.54255652e+00 2.54277325e+00 2.54945540e+00 2.55260229e+00 2.55619812e+00 2.56264806e+00 2.56300211e+00 2.56968379e+00 2.57524300e+00 2.57648826e+00 2.58316946e+00 2.58323097e+00 2.58991241e+00 2.59546208e+00 2.59671712e+00 2.60339785e+00 2.60345984e+00 2.61014080e+00 2.61568117e+00 2.61688352e+00 2.62292194e+00 2.62368894e+00 2.63036919e+00 2.63296747e+00 2.63711190e+00 2.64264011e+00 2.64385486e+00 2.65059757e+00 2.65066099e+00 2.65734029e+00 2.66285896e+00 2.66408300e+00 2.67082596e+00 2.67088962e+00 2.67756867e+00 2.68307829e+00 2.68431139e+00 2.69105434e+00 2.69111848e+00 2.69779706e+00 2.70328736e+00 2.70453978e+00 2.71003723e+00 2.71134758e+00 2.71802568e+00 2.72337842e+00 2.72476816e+00 2.73025608e+00 2.73157644e+00 2.73825407e+00 2.74346972e+00 2.74499679e+00 2.75047541e+00 2.75180531e+00 2.75848246e+00 2.75854826e+00 2.76522517e+00 2.76529121e+00 2.77196789e+00 2.77743435e+00 2.77877712e+00 2.78545356e+00 2.78552032e+00 2.79219651e+00 2.79765344e+00 2.79893923e+00 2.80568218e+00 2.80574918e+00 2.81242490e+00 2.81787252e+00 2.81923532e+00 2.82591057e+00 2.82597780e+00 2.83265328e+00 2.83809161e+00 2.83946395e+00 2.84613895e+00 2.84620690e+00 2.85288167e+00 2.85831070e+00 2.85969257e+00 2.86636734e+00 2.86643600e+00 2.87311006e+00 2.87852979e+00 2.87992167e+00 2.88659573e+00 2.88666463e+00 2.89333868e+00 2.89874911e+00 2.90015078e+00 2.90682411e+00 2.90689349e+00 2.91356707e+00 2.91896820e+00 2.92037964e+00 2.92705250e+00 2.92712259e+00 2.93379545e+00 2.93918729e+00 2.94060850e+00 2.94728088e+00 2.94735146e+00 2.95402384e+00 2.95940638e+00 2.96083713e+00 2.96750951e+00 2.97288585e+00 2.97432351e+00 2.98099518e+00 2.98106623e+00 2.98773789e+00 2.99310517e+00 2.99448085e+00 2.99984479e+00 3.00129533e+00 3.00796628e+00 3.01332402e+00 3.01470900e+00 3.02145171e+00 3.02152395e+00 3.02819467e+00 3.03354335e+00 3.03500986e+00 3.04168034e+00 3.04483962e+00 3.04842305e+00 3.05488563e+00 3.05523896e+00 3.06190872e+00 3.06724167e+00 3.06872487e+00 3.07539415e+00 3.07546782e+00 3.08213711e+00 3.08746076e+00 3.08895350e+00 3.09562254e+00 3.09569669e+00 3.10236549e+00 3.10768008e+00 3.10918283e+00 3.11585116e+00 3.11592555e+00 3.12259388e+00 3.12789917e+00 3.12941170e+00 3.13607979e+00 3.14137840e+00 3.14289761e+00 3.14956522e+00 3.15485787e+00 3.15630817e+00 3.16305089e+00 3.16312623e+00 3.16979361e+00 3.17507720e+00 3.17661262e+00 3.18327928e+00 3.18547893e+00 3.19002199e+00 3.19552445e+00 3.19684124e+00 3.20350766e+00 3.20877552e+00 3.21032715e+00 3.21699333e+00 3.21706986e+00 3.22373605e+00 3.22899485e+00 3.23055601e+00 3.23722172e+00 3.24247432e+00 3.24404192e+00 3.25070715e+00 3.25595355e+00 3.25752783e+00 3.26419306e+00 3.26943302e+00 3.27101398e+00 3.27767849e+00 3.28291249e+00 3.28449988e+00 3.29116440e+00 3.29124284e+00 3.29790688e+00 3.30464983e+00 3.30472898e+00 3.31139278e+00 3.31661105e+00 3.31821489e+00 3.32487822e+00 3.32619762e+00 3.33170056e+00 3.33836389e+00 3.33844352e+00 3.34510660e+00 3.35184932e+00 3.35192919e+00 3.35859227e+00 3.36533499e+00 3.36541557e+00 3.37207770e+00 3.37726831e+00 3.37890124e+00 3.38556337e+00 3.39074779e+00 3.39238739e+00 3.39904904e+00 3.40422726e+00 3.40587330e+00 3.41253471e+00 3.41652894e+00 3.41935921e+00 3.42602015e+00 3.43118620e+00 3.43284488e+00 3.43950605e+00 3.44466567e+00 3.44633126e+00 3.45299149e+00 3.45814490e+00 3.45981693e+00 3.46647739e+00 3.47162437e+00 3.47330332e+00 3.47996283e+00 3.48004603e+00 3.48678899e+00 3.49344826e+00 3.49353194e+00 3.50019121e+00 3.50693417e+00 3.50701785e+00 3.51367688e+00 3.51880240e+00 3.52050400e+00 3.52716231e+00 3.53390527e+00 3.53398967e+00 3.54064798e+00 3.54576111e+00 3.54747558e+00 3.55413365e+00 3.55924058e+00 3.56096125e+00 3.56761909e+00 3.57272005e+00 3.57444763e+00 3.58110476e+00 3.58730531e+00 3.58793330e+00 3.59459043e+00 3.59967875e+00 3.60141921e+00 3.60807610e+00 3.61315823e+00 3.61490536e+00 3.62156177e+00 3.62748766e+00 3.62839127e+00 3.63513398e+00 3.64179039e+00 3.64685702e+00 3.64862037e+00 3.65527582e+00 3.66033649e+00 3.66210604e+00 3.66876125e+00 3.67550421e+00 3.67602682e+00 3.68224716e+00 3.68898988e+00 3.69403481e+00 3.69582105e+00 3.70247555e+00 3.70751429e+00 3.70930719e+00 3.71596122e+00 3.72270393e+00 3.72623205e+00 3.72944665e+00 3.73618960e+00 3.73627853e+00 3.74302173e+00 3.74967504e+00 3.75469208e+00 3.75650787e+00 3.76316094e+00 3.76817155e+00 3.76999354e+00 3.77664638e+00 3.78338933e+00 3.78821826e+00 3.79022193e+00 3.79687452e+00 3.80187011e+00 3.80370831e+00 3.81036019e+00 3.81710291e+00 3.81719398e+00 3.82384586e+00 3.83058858e+00 3.83068037e+00 3.83742332e+00 3.84407425e+00 3.84904790e+00 3.85090899e+00 3.85755992e+00 3.86430287e+00 3.86858344e+00 3.87113810e+00 3.87778831e+00 3.88274670e+00 3.88462400e+00 3.89127374e+00 3.89801669e+00 3.90296555e+00 3.90485287e+00 3.91150236e+00 3.91824508e+00 3.91881204e+00 3.92508173e+00 3.93173099e+00 3.93847370e+00 3.94340396e+00 3.94531059e+00 3.95195937e+00 3.95870209e+00 3.96362329e+00 3.96553969e+00 3.97218776e+00 3.97893047e+00 3.97908616e+00 3.98576856e+00 3.99241614e+00 3.99915886e+00 3.99925423e+00 4.00599718e+00 4.01264477e+00 4.01926851e+00 4.01948357e+00 4.02622652e+00 4.03287315e+00 4.03775978e+00 4.04449987e+00 4.04645586e+00 4.05310154e+00 4.05984449e+00 4.06471920e+00 4.06668425e+00 4.07332993e+00 4.08007288e+00 4.08493805e+00 4.08691311e+00 4.09365654e+00 4.10030127e+00 4.10704422e+00 4.10967970e+00 4.11388493e+00 4.12052965e+00 4.12727261e+00 4.13211536e+00 4.13411379e+00 4.14075756e+00 4.14750051e+00 4.15233469e+00 4.15434217e+00 4.16108513e+00 4.16772890e+00 4.17255402e+00 4.17929363e+00 4.18131447e+00 4.18795729e+00 4.19277334e+00 4.19951296e+00 4.20154381e+00 4.20818567e+00 4.21492863e+00 4.22018194e+00 4.22177219e+00 4.22851515e+00 4.23515749e+00 4.24037457e+00 4.24669075e+00 4.24874449e+00 4.25538588e+00 4.26212883e+00 4.26844835e+00 4.27041006e+00 4.27571630e+00 4.28235722e+00 4.28909922e+00 4.29386902e+00 4.29594517e+00 4.30258560e+00 4.30932808e+00 4.31408787e+00 4.32063818e+00 4.32291698e+00 4.32955647e+00 4.33629942e+00 4.34104681e+00 4.34314585e+00 4.34988880e+00 4.35652781e+00 4.36327028e+00 4.36800575e+00 4.37011766e+00 4.37686062e+00 4.38349915e+00 4.39024162e+00 4.39496469e+00 4.39898205e+00 4.40383291e+00 4.41047049e+00 4.41721296e+00 4.42192316e+00 4.42406178e+00 4.43080473e+00 4.43744135e+00 4.44418430e+00 4.45092726e+00 4.45562220e+00 4.46127748e+00 4.46451950e+00 4.47115564e+00 4.47789860e+00 4.48464108e+00 4.48932028e+00 4.49149084e+00 4.49823380e+00 4.50497723e+00 4.51161194e+00 4.51835489e+00 4.52301884e+00 4.52520561e+00 4.53194857e+00 4.53869200e+00 4.54532623e+00 4.55168867e+00 4.55671740e+00 4.56173420e+00 4.56566381e+00 4.57229710e+00 4.57904005e+00 4.58578348e+00 4.59252596e+00 4.59715557e+00 4.60202694e+00 4.60612154e+00 4.61286449e+00 4.61949682e+00 4.62623978e+00 4.63216496e+00 4.63759375e+00 4.64209986e+00 4.64657927e+00 4.65332222e+00 4.66004896e+00 4.66669655e+00 4.67343998e+00 4.68018246e+00 4.68239403e+00 4.68703747e+00 4.69378042e+00 4.70052290e+00 4.70715380e+00 4.71389627e+00 4.72063923e+00 4.72521019e+00 4.73194981e+00 4.73423815e+00 4.74098110e+00 4.74772406e+00 4.75435352e+00 4.76109648e+00 4.76783895e+00 4.77269316e+00 4.77912855e+00 4.78273869e+00 4.78818226e+00 4.79481030e+00 4.80155325e+00 4.80829620e+00 4.81287575e+00 4.81956625e+00 4.82303667e+00 4.83074665e+00 4.83538246e+00 4.84212542e+00 4.84886837e+00 4.85549545e+00 4.86223793e+00 4.86898088e+00 4.87572384e+00 4.88246632e+00 4.88920927e+00 4.89370298e+00 4.90044260e+00 4.90281200e+00 4.90955496e+00 4.91629791e+00 4.92304087e+00 4.92966604e+00 4.93640900e+00 4.94315195e+00 4.94989443e+00 4.95436049e+00 4.96110010e+00 4.96367931e+00 4.97132158e+00 4.97698498e+00 4.98372793e+00 4.99047089e+00 4.99709415e+00 5.00383759e+00 5.01057959e+00 5.01732254e+00 5.02406597e+00 5.03080845e+00 5.03755093e+00 5.04404640e+00 5.05103731e+00 5.05777979e+00 5.06401730e+00 5.06893539e+00 5.07406282e+00 5.07812929e+00 5.08487272e+00 5.09161520e+00 5.09835863e+00 5.10510159e+00 5.11184454e+00 5.11858702e+00 5.12533045e+00 5.13207340e+00 5.13881636e+00 5.14555931e+00 5.15230227e+00 5.15904522e+00 5.16566467e+00 5.17253113e+00 5.17927361e+00 5.18589258e+00 5.19275951e+00 5.19950247e+00 5.20612097e+00 5.21286392e+00 5.21960688e+00 5.22634983e+00 5.23309231e+00 5.23983526e+00 5.24657774e+00 5.25332117e+00 5.26006365e+00 5.26680660e+00 5.27354908e+00 5.28029203e+00 5.28703547e+00 5.29377794e+00 5.30052042e+00 5.30726337e+00 5.31400681e+00 5.32087660e+00 5.32761908e+00 5.33436251e+00 5.34110498e+00 5.34784842e+00 5.35459089e+00 5.36133432e+00 5.36807728e+00 5.37481976e+00 5.38156319e+00 5.38830566e+00 5.39504910e+00 5.40179253e+00 5.40840626e+00 5.41527796e+00 5.42202044e+00 5.42876387e+00 5.43550634e+00 5.44224977e+00 5.44899321e+00 5.45579767e+00 5.46584415e+00 5.47331810e+00 5.48005819e+00 5.48679781e+00 5.49353790e+00 5.50027704e+00 5.50954819e+00 5.51629114e+00 5.52303314e+00 5.52977562e+00 5.53651857e+00 5.54339361e+00 5.55013704e+00 5.55688047e+00 5.56362295e+00 5.57036591e+00 5.57710838e+00 5.58385181e+00 5.59386587e+00 5.60137177e+00 5.60811234e+00 5.61743307e+00 5.62417507e+00 5.63091803e+00 5.63766146e+00 5.64453840e+00 5.65128183e+00 5.65802431e+00 5.66675663e+00 5.67680311e+00 5.68224907e+00 5.69160318e+00 5.69834661e+00 5.70508957e+00 5.71183205e+00 5.71857452e+00 5.72545433e+00 5.73219728e+00 5.73894024e+00 5.74964619e+00 5.75716829e+00 5.76577473e+00 5.77251673e+00 5.77926016e+00 5.78614092e+00 5.79468679e+00 5.80356407e+00 5.81297445e+00 5.81971693e+00 5.82645941e+00 5.83334160e+00 5.84008455e+00 5.84757853e+00 5.85748196e+00 5.86691618e+00 5.87365913e+00 5.88040161e+00 5.88728523e+00 5.89402866e+00 5.90465879e+00 5.91411638e+00 5.92085838e+00 5.92774391e+00 5.93448591e+00 5.94530344e+00 5.95457315e+00 5.96131563e+00 5.96820116e+00 5.97817278e+00 5.98553610e+00 5.99502993e+00 6.00177240e+00 6.00851583e+00 6.01540184e+00 6.02563143e+00 6.03271389e+00 6.04222918e+00 6.04897261e+00 6.05586004e+00 6.06260252e+00 6.07594347e+00 6.08268595e+00 6.08942938e+00 6.09631729e+00 6.10306072e+00 6.11359072e+00 6.12033033e+00 6.12988615e+00 6.13677597e+00 6.14351845e+00 6.15402889e+00 6.16076899e+00 6.17034292e+00 6.17723370e+00 6.18397665e+00 6.19446707e+00 6.20405674e+00 6.21080017e+00 6.21769047e+00 6.22816563e+00 6.23777056e+00 6.24466324e+00 6.25140524e+00 6.26474190e+00 6.27148438e+00 6.27837801e+00 6.28882313e+00 6.29845667e+00 6.30534935e+00 6.31578207e+00 6.32542706e+00 6.33232117e+00 6.33981657e+00 6.35239840e+00 6.35914183e+00 6.36603594e+00 6.37643909e+00 6.38611269e+00 6.39300871e+00 6.40008974e+00 6.41013765e+00 6.41982651e+00 6.42672300e+00 6.43709660e+00 6.44679785e+00 6.45369530e+00 6.46051836e+00 6.47376871e+00 6.48066711e+00 6.49101448e+00 6.50074100e+00 6.50763845e+00 6.51797342e+00 6.52771139e+00 6.53461075e+00 6.54794025e+00 6.55483961e+00 6.56816769e+00 6.57506800e+00 6.58181143e+00 6.59513950e+00 6.60188246e+00 6.60878325e+00 6.62109518e+00 6.62901211e+00 6.63928795e+00 6.64908266e+00 6.65598392e+00 6.66825819e+00 6.67605305e+00 6.68295574e+00 6.69320583e+00 6.70302439e+00 6.71166563e+00 6.72325277e+00 6.73015642e+00 6.74180365e+00 6.75038576e+00 6.75712872e+00 6.77045250e+00 6.77735710e+00 6.78756189e+00 6.79742384e+00 6.80432940e+00 6.81765223e+00 6.82455778e+00 6.83788061e+00 6.84478712e+00 6.85810947e+00 6.86501646e+00 6.87517834e+00 6.88508034e+00 6.89539719e+00 6.90530968e+00 6.91221666e+00 6.92553711e+00 6.93244505e+00 6.94257402e+00 6.95250845e+00 6.96279335e+00 6.97273636e+00 6.98301315e+00 6.99296522e+00 7.00323248e+00 7.01319313e+00 7.02345085e+00 7.03342199e+00 7.04366970e+00 7.05381918e+00 7.06327248e+00 7.07387877e+00 7.08410883e+00 7.09410715e+00 7.10432816e+00 7.11433554e+00 7.12337780e+00 7.13456392e+00 7.14476633e+00 7.15496397e+00 7.16827822e+00 7.17519236e+00 7.18850660e+00 7.19542122e+00 7.20873547e+00 7.21565056e+00 7.22896338e+00 7.23587990e+00 7.24919224e+00 7.25934076e+00 7.26942015e+00 7.27956057e+00 7.28982258e+00 7.30313444e+00 7.31325817e+00 7.32336235e+00 7.33347845e+00 7.34376669e+00 7.35707712e+00 7.36717606e+00 7.37748194e+00 7.39079094e+00 7.39770985e+00 7.41101933e+00 7.42109442e+00 7.43142509e+00 7.44473314e+00 7.45479298e+00 7.46513987e+00 7.47844744e+00 7.48536921e+00 7.49867582e+00 7.50871086e+00 7.51908398e+00 7.53239012e+00 7.54240942e+00 7.55279875e+00 7.56538630e+00 7.57302809e+00 7.58651400e+00 7.59981823e+00 7.60674238e+00 7.62022877e+00 7.63353252e+00 7.64350510e+00 7.65394306e+00 7.66724634e+00 7.68073177e+00 7.69068289e+00 7.70114470e+00 7.71444559e+00 7.72793198e+00 7.73786020e+00 7.74834538e+00 7.76183081e+00 7.77513123e+00 7.78503799e+00 7.79554510e+00 7.80903053e+00 7.82233000e+00 7.83221579e+00 7.84274578e+00 7.85623217e+00 7.86953020e+00 7.88301563e+00 7.89287424e+00 7.90343332e+00 7.91691875e+00 7.93021536e+00 7.94005156e+00 7.95063400e+00 7.96392918e+00 7.97741508e+00 7.98730421e+00 8.00070953e+00 8.01132107e+00 8.02461433e+00 8.03810024e+00 8.05158615e+00 8.06136608e+00 8.07200623e+00 8.08549309e+00 8.09878540e+00 8.11227131e+00 8.12575626e+00 8.13924217e+00 8.15272903e+00 8.16246223e+00 8.17594147e+00 8.18942070e+00 8.20012379e+00 8.21360970e+00 8.22689915e+00 8.24038506e+00 8.25007820e+00 8.26355839e+00 8.27429676e+00 8.28778172e+00 8.30126858e+00 8.31475449e+00 8.32824039e+00 8.34152699e+00 8.35501194e+00 8.36849880e+00 8.38198376e+00 8.39566994e+00 8.40895462e+00 8.42244053e+00 8.43205070e+00 8.44552994e+00 8.45900917e+00 8.47248840e+00 8.48596764e+00 8.49944782e+00 8.51292706e+00 8.52640629e+00 8.53981590e+00 8.55075741e+00 8.56684399e+00 8.57999897e+00 8.59380341e+00 8.61013508e+00 8.62038612e+00 8.63424206e+00 8.65169525e+00 8.66518116e+00 8.67866707e+00 8.69215298e+00 8.70584583e+00 8.71933174e+00 8.73281765e+00 8.74630356e+00 8.76082039e+00 8.77980900e+00 8.79329491e+00 8.80677986e+00 8.82026577e+00 8.83375168e+00 8.84723759e+00 8.86093426e+00 8.87442112e+00 8.88790703e+00 8.90145969e+00 8.91730976e+00 8.93489361e+00 8.94859314e+00 8.96207905e+00 8.97796726e+00 8.99208546e+00 9.00906467e+00 9.02255058e+00 9.03625202e+00 9.04973793e+00 9.06322384e+00 9.07906342e+00 9.09254265e+00 9.10823250e+00 9.12369251e+00 9.13739681e+00 9.15088272e+00 9.16436768e+00 9.18015766e+00 9.19363785e+00 9.21134853e+00 9.22505379e+00 9.23854065e+00 9.25429440e+00 9.27203369e+00 9.28551960e+00 9.30147266e+00 9.31495190e+00 9.33271980e+00 9.34642792e+00 9.36213017e+00 9.37991905e+00 9.39340496e+00 9.40711498e+00 9.42278767e+00 9.44060421e+00 9.45409012e+00 9.46996593e+00 9.48780441e+00 9.50128937e+00 9.51500320e+00 9.53500366e+00 9.54848957e+00 9.56432152e+00 9.58220291e+00 9.59591770e+00 9.61470127e+00 9.62940311e+00 9.64519882e+00 9.66311646e+00 9.67683411e+00 9.69237614e+00 9.71054840e+00 9.72607517e+00 9.74426365e+00 9.75977421e+00 9.77774525e+00 9.79552364e+00 9.81145859e+00 9.82517910e+00 9.84517288e+00 9.86086845e+00 9.87888622e+00 9.89237213e+00 9.90804672e+00 9.92608643e+00 9.94174576e+00 9.95979977e+00 9.97544289e+00 9.99375343e+00 1.00137424e+01 1.00293608e+01 1.00474558e+01 1.00611830e+01 1.00811710e+01 1.00968933e+01 1.01151266e+01 1.01351137e+01 1.01525011e+01 1.01690702e+01 1.01890564e+01 1.02045946e+01 1.02230139e+01 1.02382927e+01 1.02567291e+01 1.02769585e+01 1.02969408e+01 1.03106728e+01 1.03309011e+01 1.03508835e+01 1.03711119e+01 1.03882170e+01 1.04067860e+01 1.04253035e+01 1.04452839e+01 1.04655113e+01 1.04809227e+01 1.04994755e+01 1.05194530e+01 1.05348406e+01 1.05534191e+01 1.05736475e+01 1.05936241e+01 1.06138535e+01 1.06291952e+01 1.06478205e+01 1.06680489e+01 1.06882792e+01 1.07082520e+01 1.07235518e+01 1.07437696e+01 1.07639894e+01 1.07826805e+01 1.08026514e+01 1.08201809e+01 1.08381281e+01 1.08568525e+01 1.08768215e+01 1.08970499e+01 1.09172792e+01 1.09375086e+01 1.09577370e+01 1.09729204e+01 1.09931402e+01 1.10119410e+01 1.10321703e+01 1.10523996e+01 1.10762777e+01 1.10993357e+01 1.11198292e+01 1.11400585e+01 1.11616344e+01 1.11818523e+01 1.12020721e+01 1.12222910e+01 1.12469749e+01 1.12679052e+01 1.12884026e+01 1.13099060e+01 1.13301258e+01 1.13555613e+01 1.13757896e+01 1.13975229e+01 1.14229898e+01 1.14432173e+01 1.14634457e+01 1.14839487e+01 1.15041780e+01 1.15308752e+01 1.15513783e+01 1.15736055e+01 1.15985794e+01 1.16188087e+01 1.16439238e+01 1.16660099e+01 1.16862383e+01 1.17064667e+01 1.17334394e+01 1.17536678e+01 1.17803593e+01 1.18008690e+01 1.18275585e+01 1.18480692e+01 1.18747578e+01 1.18962612e+01 1.19222422e+01 1.19452934e+01 1.19694424e+01 1.19961281e+01 1.20163555e+01 1.20433283e+01 1.20638437e+01 1.20905275e+01 1.21119318e+01 1.21377268e+01 1.21591091e+01 1.21849270e+01 1.22062874e+01 1.22324181e+01 1.22567101e+01 1.22793274e+01 1.23062963e+01 1.23276024e+01 1.23537912e+01 1.23807650e+01 1.24074392e+01 1.24279652e+01 1.24549370e+01 1.24819078e+01 1.25085812e+01 1.25355530e+01 1.25567532e+01 1.25830526e+01 1.26097240e+01 1.26366959e+01 1.26636648e+01 1.26886740e+01 1.27117653e+01 1.27381411e+01 1.27648077e+01 1.27917795e+01 1.28190575e+01 1.28457212e+01 1.28726931e+01 1.28996658e+01 1.29266348e+01 1.29498615e+01 1.29799986e+01 1.30011168e+01 1.30277777e+01 1.30547485e+01 1.30757103e+01 1.31026688e+01 1.31296291e+01 1.31565866e+01 1.31896048e+01 1.32165766e+01 1.32435484e+01 1.32708359e+01 1.33042326e+01 1.33315220e+01 1.33587770e+01 1.33918896e+01 1.34188595e+01 1.34461527e+01 1.34795465e+01 1.35003119e+01 1.35334883e+01 1.35604601e+01 1.35877562e+01 1.36148863e+01 1.36481152e+01 1.36750870e+01 1.37023849e+01 1.37357721e+01 1.37630730e+01 1.37901192e+01 1.38234301e+01 1.38507318e+01 1.38841152e+01 1.39114342e+01 1.39448004e+01 1.39721050e+01 1.40054846e+01 1.40327492e+01 1.40597076e+01 1.40866661e+01 1.41204491e+01 1.41540632e+01 1.41854773e+01 1.42212543e+01 1.42549677e+01 1.42886829e+01 1.43225574e+01 1.43561106e+01 1.43834248e+01 1.44169130e+01 1.44470091e+01 1.44778261e+01 1.45112686e+01 1.45449667e+01 1.45722275e+01 1.46073942e+01 1.46396589e+01 1.46733742e+01 1.47070875e+01 1.47471581e+01 1.47808571e+01 1.48146210e+01 1.48484917e+01 1.48824053e+01 1.49161196e+01 1.49498358e+01 1.49835501e+01 1.50234871e+01 1.50573626e+01 1.50910759e+01 1.51247911e+01 1.51588669e+01 1.51925812e+01 1.52262955e+01 1.52661161e+01 1.53001032e+01 1.53338184e+01 1.53708649e+01 1.54079885e+01 1.54488144e+01 1.54825296e+01 1.55226173e+01 1.55563316e+01 1.55963612e+01 1.56300611e+01 1.56642160e+01 1.57046719e+01 1.57383852e+01 1.57788429e+01 1.58125563e+01 1.58524714e+01 1.58867283e+01 1.59208212e+01 1.59608984e+01 1.60007458e+01 1.60354538e+01 1.60816212e+01 1.61163692e+01 1.61631832e+01 1.62036400e+01 1.62377434e+01 1.62838116e+01 1.63242512e+01 1.63591156e+01 1.63991833e+01 1.64396381e+01 1.64792633e+01 1.65197029e+01 1.65610065e+01 1.66082077e+01 1.66490631e+01 1.66949348e+01 1.67363205e+01 1.67771778e+01 1.68176365e+01 1.68634281e+01 1.69038639e+01 1.69443035e+01 1.69858055e+01 1.70266705e+01 1.70734615e+01 1.71206627e+01 1.71611176e+01 1.72083187e+01 1.72498169e+01 1.72963867e+01 1.73431740e+01 1.73900433e+01 1.74308300e+01 1.74834805e+01 1.75252304e+01 1.75728512e+01 1.76196289e+01 1.76668301e+01 1.77140274e+01 1.77549095e+01 1.78021126e+01 1.78488846e+01 1.78965111e+01 1.79485207e+01 1.79956970e+01 1.80448570e+01 1.81051121e+01 1.81523094e+01 1.81999454e+01 1.82471447e+01 1.82939110e+01 1.83415489e+01 1.83887501e+01 1.84422531e+01 1.84894524e+01 1.85366516e+01 1.85869789e+01 1.86427116e+01 1.86917362e+01 1.87456779e+01 1.87928772e+01 1.88468208e+01 1.89007626e+01 1.89547043e+01 1.90086479e+01 1.90630455e+01 1.91169891e+01 1.91772194e+01 1.92316208e+01 1.92851028e+01 1.93369007e+01 1.93908195e+01 1.94473934e+01 1.95053921e+01 1.95620251e+01 1.96201801e+01 1.96766567e+01 1.97305984e+01 1.97840710e+01 1.98447571e+01 1.99030361e+01 1.99661255e+01 2.00200691e+01 2.00744896e+01 2.01351776e+01 2.01953812e+01 2.02565517e+01 2.03167515e+01 2.03774376e+01 2.04381218e+01 2.04992981e+01 2.05567894e+01 2.06274128e+01 2.06876068e+01 2.07487888e+01 2.08128967e+01 2.08802929e+01 2.09476910e+01 2.10112610e+01 2.10724506e+01 2.11393757e+01 2.12038021e+01 2.12679958e+01 2.13416595e+01 2.14090862e+01 2.14733906e+01 2.15439415e+01 2.16113682e+01 2.16788006e+01 2.17462273e+01 2.18136539e+01 2.18878269e+01 2.19619980e+01 2.20294247e+01 2.20973797e+01 2.21715546e+01 2.22417145e+01 2.23225918e+01 2.23940735e+01 2.24677067e+01 2.25418797e+01 2.26160469e+01 2.26865349e+01 2.27581921e+01 2.28348103e+01 2.29224243e+01 2.30003891e+01 2.30813046e+01 2.31560287e+01 2.32302017e+01 2.33178596e+01 2.34049587e+01 2.34796906e+01 2.35600414e+01 2.36409569e+01 2.37177124e+01 2.38033543e+01 2.38862038e+01 2.39713535e+01 2.40595856e+01 2.41466675e+01 2.42411823e+01 2.43304558e+01 2.44220047e+01 2.45107765e+01 2.45990238e+01 2.46860924e+01 2.47810841e+01 2.48702011e+01 2.49563999e+01 2.50508022e+01 2.51513424e+01 2.52441921e+01 2.53340054e+01 2.54284096e+01 2.55289440e+01 2.56239548e+01 2.57250977e+01 2.58188801e+01 2.59148560e+01 2.60150471e+01 2.61296768e+01 2.62443066e+01 2.63461990e+01 2.64527073e+01 2.65538464e+01 2.66556282e+01 2.67567730e+01 2.68640175e+01 2.69792900e+01 2.71067600e+01 2.72281303e+01 2.73366680e+01 2.74380302e+01 2.75585270e+01 2.76670742e+01 2.77682743e+01 2.77742977e+01 2.77810383e+01 2.77817039e+01 2.77873001e+01 2.93443794e+01 3.09516850e+01 3.29507675e+01 3.51747856e+01 3.74914093e+01 4.07375221e+01 4.13701096e+01 4.13891220e+01 4.13901138e+01 4.13901138e+01 
            </HistogramBinning>
          </PDF>
        </CumulativePDF_cls0>
      </Variable>
      <Variable VarIndex="2">
        <CumulativePDF_cls0>
          <PDF Name="GaussTransform var2 cls0" MinNSmooth="0" MaxNSmooth="0" InterpolMethod="1" KDE_type="0" KDE_iter="1" KDE_border="1" KDE_finefactor="0.0000000000000000e+00">
            <Histogram Name="Cumulative_Var2_cls0_original" NBins="1832" XMin="-9.9999997473787516e-05" XMax="4.1390113830566406e+01" HasEquidistantBins="0">
              5.02072682e-04 1.00414536e-03 1.50621810e-03 2.00829073e-03 2.51036347e-03 3.01351212e-03 3.51881236e-03 4.02518874e-03 4.53156466e-03 5.03794104e-03 5.53804124e-03 6.02558954e-03 6.50686212e-03 6.98813470e-03 7.47406948e-03 7.96932820e-03 8.47803522e-03 9.00431536e-03 9.53938160e-03 1.00744469e-02 1.06095131e-02 1.11374073e-02 1.16509553e-02 1.21573312e-02 1.26637081e-02 1.31708011e-02 1.36793293e-02 1.41885746e-02 1.46978199e-02 1.52110504e-02 1.57296155e-02 1.62376333e-02 1.67086050e-02 1.71326902e-02 1.75333340e-02 1.79506354e-02 1.84004754e-02 1.88645050e-02 1.93228032e-02 1.97696406e-02 2.02261675e-02 2.07135361e-02 2.11976785e-02 2.16445234e-02 2.20859889e-02 2.25539915e-02 2.30338294e-02 2.35107988e-02 2.39863340e-02 2.44618673e-02 2.49362662e-02 2.54141334e-02 2.59049684e-02 2.64063235e-02 2.69057676e-02 2.73986943e-02 2.78903078e-02 2.83830557e-02 2.88786739e-02 2.93842126e-02 2.99009290e-02 3.04215308e-02 3.09417136e-02 3.14617194e-02 3.19831558e-02 3.25074643e-02 3.30332071e-02 3.35589461e-02 3.40789519e-02 3.45874801e-02 3.50902677e-02 3.55930589e-02 3.60958502e-02 3.65955904e-02 3.70892361e-02 3.75798307e-02 3.80704291e-02 3.85610275e-02 3.90602313e-02 3.95766459e-02 4.01016735e-02 4.06266972e-02 4.11517210e-02 4.16767448e-02 4.22017686e-02 4.27267961e-02 4.32394519e-02 4.37253080e-02 4.42029126e-02 4.47135009e-02 4.52772751e-02 4.58724238e-02 4.64561023e-02 4.70097624e-02 4.75498512e-02 4.80899364e-02 4.86089103e-02 4.90856543e-02 4.95412871e-02 4.99969162e-02 5.04810140e-02 5.10220416e-02 5.15915342e-02 5.21651469e-02 5.27469888e-02 5.33205792e-02 5.38636521e-02 5.43836579e-02 5.49070090e-02 5.54511882e-02 5.60192168e-02 5.66034690e-02 5.71827330e-02 5.77280298e-02 5.82306385e-02 5.87140657e-02 5.92084862e-02 5.97262941e-02 6.02578185e-02 6.07811548e-02 6.12812564e-02 6.17657788e-02 6.22579791e-02 6.27754033e-02 6.33149594e-02 6.38615042e-02 6.44080490e-02 6.49545863e-02 6.54891133e-02 6.59996197e-02 6.64981008e-02 6.69965893e-02 6.74923584e-02 6.79876730e-02 6.84915259e-02 6.90004975e-02 6.94967508e-02 6.99722841e-02 7.04386756e-02 7.09050670e-02 7.13714585e-02 7.18564466e-02 7.23786503e-02 7.29194507e-02 7.34602585e-02 7.40010589e-02 7.45534748e-02 7.51291141e-02 7.56746680e-02 7.61368424e-02 7.66015723e-02 7.71547928e-02 7.77406096e-02 7.83031061e-02 7.88539499e-02 7.94040784e-02 7.99527764e-02 8.04975256e-02 8.10358152e-02 8.15750062e-02 8.21224451e-02 8.26641023e-02 8.31859410e-02 8.37070271e-02 8.42463970e-02 8.47854018e-02 8.53054076e-02 8.58225003e-02 8.63527656e-02 8.68980512e-02 8.74601975e-02 8.80348906e-02 8.86178315e-02 8.92049000e-02 8.97919685e-02 9.03633758e-02 9.09034908e-02 9.14162919e-02 9.19012651e-02 9.23681930e-02 9.28456411e-02 9.33452621e-02 9.38587487e-02 9.43804011e-02 9.49061438e-02 9.54318866e-02 9.59576294e-02 9.64830071e-02 9.70076770e-02 9.75319818e-02 9.80562940e-02 9.85805988e-02 9.90928933e-02 9.95811597e-02 1.00057408e-01 1.00533664e-01 1.01009913e-01 1.01497822e-01 1.02009036e-01 1.02531910e-01 1.03054784e-01 1.03577659e-01 1.04116000e-01 1.04685292e-01 1.05275705e-01 1.05878435e-01 1.06485225e-01 1.07077554e-01 1.07649766e-01 1.08201399e-01 1.08728386e-01 1.09238289e-01 1.09737732e-01 1.10233344e-01 1.10738434e-01 1.11255839e-01 1.11777999e-01 1.12321824e-01 1.12915806e-01 1.13537133e-01 1.14126466e-01 1.14662126e-01 1.15175962e-01 1.15691796e-01 1.16215982e-01 1.16757266e-01 1.17308110e-01 1.17851332e-01 1.18380785e-01 1.18904389e-01 1.19435780e-01 1.19979836e-01 1.20529242e-01 1.21084198e-01 1.21652968e-01 1.22232690e-01 1.22812182e-01 1.23385876e-01 1.23948112e-01 1.24489993e-01 1.25019312e-01 1.25557974e-01 1.26112789e-01 1.26671240e-01 1.27227232e-01 1.27777666e-01 1.28313601e-01 1.28839284e-01 1.29371896e-01 1.29919156e-01 1.30472288e-01 1.31028384e-01 1.31585300e-01 1.32148057e-01 1.32738113e-01 1.33341327e-01 1.33921400e-01 1.34470552e-01 1.35001138e-01 1.35529444e-01 1.36063620e-01 1.36600658e-01 1.37137875e-01 1.37675881e-01 1.38217449e-01 1.38767526e-01 1.39326468e-01 1.39888793e-01 1.40453622e-01 1.41023472e-01 1.41595840e-01 1.42168194e-01 1.42703444e-01 1.43164456e-01 1.43588349e-01 1.44012243e-01 1.44449383e-01 1.44892961e-01 1.45308957e-01 1.45722330e-01 1.46207318e-01 1.46770731e-01 1.47349283e-01 1.47918060e-01 1.48486122e-01 1.49052754e-01 1.49618655e-01 1.50184572e-01 1.50744736e-01 1.51293427e-01 1.51836380e-01 1.52379334e-01 1.52917773e-01 1.53445646e-01 1.53969839e-01 1.54509321e-01 1.55070931e-01 1.55641675e-01 1.56212434e-01 1.56771928e-01 1.57308921e-01 1.57834664e-01 1.58360407e-01 1.58886150e-01 1.59383908e-01 1.59825742e-01 1.60239592e-01 1.60653442e-01 1.61090732e-01 1.61586925e-01 1.62131146e-01 1.62677631e-01 1.63202956e-01 1.63717404e-01 1.64231837e-01 1.64747491e-01 1.65265575e-01 1.65784866e-01 1.66304141e-01 1.66823432e-01 1.67353660e-01 1.67905763e-01 1.68468803e-01 1.69031844e-01 1.69583708e-01 1.70107812e-01 1.70610204e-01 1.71113864e-01 1.71629965e-01 1.72152117e-01 1.72674268e-01 1.73201725e-01 1.73740461e-01 1.74282074e-01 1.74808264e-01 1.75309762e-01 1.75795197e-01 1.76278412e-01 1.76764250e-01 1.77251264e-01 1.77738279e-01 1.78225294e-01 1.78711578e-01 1.79195181e-01 1.79676816e-01 1.80178523e-01 1.80720478e-01 1.81282774e-01 1.81840569e-01 1.82404548e-01 1.82996035e-01 1.83596373e-01 1.84156656e-01 1.84653237e-01 1.85116231e-01 1.85601041e-01 1.86126515e-01 1.86668754e-01 1.87210992e-01 1.87746599e-01 1.88268930e-01 1.88784629e-01 1.89300328e-01 1.89816028e-01 1.90328687e-01 1.90833628e-01 1.91332296e-01 1.91829339e-01 1.92326397e-01 1.92823455e-01 1.93314403e-01 1.93793163e-01 1.94265828e-01 1.94738492e-01 1.95240185e-01 1.95810661e-01 1.96424007e-01 1.97007015e-01 1.97530672e-01 1.98028445e-01 1.98526219e-01 1.99023992e-01 1.99519604e-01 2.00010926e-01 2.00500086e-01 2.00989246e-01 2.01509342e-01 2.02101842e-01 2.02736452e-01 2.03331560e-01 2.03844190e-01 2.04306155e-01 2.04782858e-01 2.05302089e-01 2.05840752e-01 2.06379399e-01 2.06920207e-01 2.07470328e-01 2.08032653e-01 2.08600000e-01 2.09167346e-01 2.09726438e-01 2.10269034e-01 2.10803375e-01 2.11337730e-01 2.11872071e-01 2.12414548e-01 2.12974876e-01 2.13541552e-01 2.14088440e-01 2.14606106e-01 2.15110406e-01 2.15609029e-01 2.16096804e-01 2.16578782e-01 2.17060775e-01 2.17542768e-01 2.18029425e-01 2.18525395e-01 2.19026029e-01 2.19526678e-01 2.20027313e-01 2.20512658e-01 2.20967442e-01 2.21425891e-01 2.21922278e-01 2.22437620e-01 2.22957894e-01 2.23488033e-01 2.24023089e-01 2.24558160e-01 2.25105420e-01 2.25678682e-01 2.26267353e-01 2.26857647e-01 2.27447942e-01 2.28024259e-01 2.28572592e-01 2.29106933e-01 2.29638591e-01 2.30164871e-01 2.30688468e-01 2.31212050e-01 2.31750086e-01 2.32320592e-01 2.32905447e-01 2.33461261e-01 2.33971491e-01 2.34460548e-01 2.34941542e-01 2.35407308e-01 2.35864908e-01 2.36322507e-01 2.36780107e-01 2.37252593e-01 2.37754852e-01 2.38271981e-01 2.38789126e-01 2.39306256e-01 2.39819452e-01 2.40324751e-01 2.40826100e-01 2.41325647e-01 2.41821572e-01 2.42322519e-01 2.42839888e-01 2.43368506e-01 2.43892327e-01 2.44404569e-01 2.44913399e-01 2.45425865e-01 2.45940134e-01 2.46454403e-01 2.46977091e-01 2.47518763e-01 2.48072177e-01 2.48620152e-01 2.49146372e-01 2.49647930e-01 2.50141591e-01 2.50638485e-01 2.51142591e-01 2.51623213e-01 2.52030134e-01 2.52398074e-01 2.52809167e-01 2.53299922e-01 2.53851503e-01 2.54399508e-01 2.54911423e-01 2.55417645e-01 2.55938321e-01 2.56471932e-01 2.57013291e-01 2.57543534e-01 2.58044660e-01 2.58532375e-01 2.59045035e-01 2.59594023e-01 2.60157257e-01 2.60720104e-01 2.61283666e-01 2.61848330e-01 2.62414247e-01 2.62980878e-01 2.63547480e-01 2.64110178e-01 2.64664948e-01 2.65215814e-01 2.65766650e-01 2.66317487e-01 2.66848803e-01 2.67341018e-01 2.67813683e-01 2.68286347e-01 2.68759012e-01 2.69253731e-01 2.69792557e-01 2.70353436e-01 2.70914346e-01 2.71464109e-01 2.71991640e-01 2.72508055e-01 2.73024470e-01 2.73512006e-01 2.73941815e-01 2.74342775e-01 2.74743706e-01 2.75167555e-01 2.75638163e-01 2.76133567e-01 2.76629895e-01 2.77126223e-01 2.77626067e-01 2.78132886e-01 2.78642297e-01 2.79149950e-01 2.79657573e-01 2.80166984e-01 2.80676872e-01 2.81185806e-01 2.81687945e-01 2.82173365e-01 2.82647431e-01 2.83131272e-01 2.83636838e-01 2.84155399e-01 2.84671336e-01 2.85179049e-01 2.85683274e-01 2.86187500e-01 2.86690652e-01 2.87200063e-01 2.87725270e-01 2.88258910e-01 2.88798988e-01 2.89352000e-01 2.89911449e-01 2.90470898e-01 2.90988356e-01 2.91421801e-01 2.91813225e-01 2.92204678e-01 2.92609900e-01 2.93058634e-01 2.93558806e-01 2.94082522e-01 2.94589788e-01 2.95064718e-01 2.95525551e-01 2.95981020e-01 2.96422094e-01 2.96846896e-01 2.97261953e-01 2.97681540e-01 2.98112780e-01 2.98547328e-01 2.98980534e-01 2.99416274e-01 2.99857020e-01 3.00300270e-01 3.00743520e-01 3.01193953e-01 3.01666617e-01 3.02162230e-01 3.02665740e-01 3.03169250e-01 3.03672761e-01 3.04183275e-01 3.04707736e-01 3.05239230e-01 3.05770695e-01 3.06302190e-01 3.06830794e-01 3.07353675e-01 3.07873666e-01 3.08393687e-01 3.08899224e-01 3.09371531e-01 3.09825540e-01 3.10294092e-01 3.10791850e-01 3.11309040e-01 3.11818600e-01 3.12306315e-01 3.12773734e-01 3.13218206e-01 3.13653886e-01 3.14113408e-01 3.14607084e-01 3.15114886e-01 3.15629661e-01 3.16160947e-01 3.16699594e-01 3.17219347e-01 3.17713261e-01 3.18200976e-01 3.18691581e-01 3.19182158e-01 3.19672763e-01 3.20163369e-01 3.20658088e-01 3.21169525e-01 3.21704507e-01 3.22241008e-01 3.22725385e-01 3.23130250e-01 3.23505729e-01 3.23937505e-01 3.24470401e-01 3.25070113e-01 3.25666249e-01 3.26225281e-01 3.26762497e-01 3.27296495e-01 3.27813596e-01 3.28291893e-01 3.28743845e-01 3.29199046e-01 3.29668820e-01 3.30145806e-01 3.30633014e-01 3.31148535e-01 3.31688613e-01 3.32230061e-01 3.32763255e-01 3.33279014e-01 3.33753437e-01 3.34197879e-01 3.34676266e-01 3.35218608e-01 3.35766226e-01 3.36236924e-01 3.36627960e-01 3.37005973e-01 3.37395430e-01 3.37805510e-01 3.38256836e-01 3.38728786e-01 3.39200735e-01 3.39656442e-01 3.40074927e-01 3.40474367e-01 3.40900660e-01 3.41378659e-01 3.41893405e-01 3.42413038e-01 3.42913419e-01 3.43391597e-01 3.43861759e-01 3.44331890e-01 3.44820201e-01 3.45344841e-01 3.45887601e-01 3.46430391e-01 3.46971184e-01 3.47508043e-01 3.48030448e-01 3.48520100e-01 3.48983437e-01 3.49453956e-01 3.49945426e-01 3.50441039e-01 3.50939363e-01 3.51457387e-01 3.51996034e-01 3.52544010e-01 3.53096545e-01 3.53647441e-01 3.54173452e-01 3.54656637e-01 3.55117857e-01 3.55601281e-01 3.56123358e-01 3.56662005e-01 3.57200652e-01 3.57721567e-01 3.58202845e-01 3.58659863e-01 3.59127522e-01 3.59619617e-01 3.60119134e-01 3.60610813e-01 3.61098528e-01 3.61576408e-01 3.62034559e-01 3.62482816e-01 3.62931103e-01 3.63378674e-01 3.63824785e-01 3.64270210e-01 3.64715606e-01 3.65161031e-01 3.65606129e-01 3.66055697e-01 3.66515219e-01 3.66981655e-01 3.67451310e-01 3.67922544e-01 3.68393779e-01 3.68865013e-01 3.69328886e-01 3.69778067e-01 3.70219886e-01 3.70661706e-01 3.71103525e-01 3.71545345e-01 3.72035772e-01 3.72574776e-01 3.73113811e-01 3.73650044e-01 3.74183476e-01 3.74718815e-01 3.75206530e-01 3.75642985e-01 3.76075834e-01 3.76506925e-01 3.76937985e-01 3.77374232e-01 3.77820909e-01 3.78283799e-01 3.78768742e-01 3.79249483e-01 3.79699737e-01 3.80149990e-01 3.80630732e-01 3.81111443e-01 3.81561697e-01 3.82005423e-01 3.82466525e-01 3.82936299e-01 3.83406103e-01 3.83885592e-01 3.84384423e-01 3.84892970e-01 3.85401487e-01 3.85898262e-01 3.86371493e-01 3.86821330e-01 3.87245476e-01 3.87660027e-01 3.88102114e-01 3.88581455e-01 3.89073193e-01 3.89563084e-01 3.90052944e-01 3.90537083e-01 3.91009748e-01 3.91487628e-01 3.91987354e-01 3.92482221e-01 3.92945439e-01 3.93404692e-01 3.93887699e-01 3.94390136e-01 3.94907624e-01 3.95432651e-01 3.95957679e-01 3.96490753e-01 3.97041380e-01 3.97597730e-01 3.98133278e-01 3.98639977e-01 3.99134904e-01 3.99629802e-01 4.00124699e-01 4.00619596e-01 4.01114494e-01 4.01609391e-01 4.02082592e-01 4.02570635e-01 4.03094083e-01 4.03620541e-01 4.04172152e-01 4.04702336e-01 4.05190080e-01 4.05677795e-01 4.06165510e-01 4.06652868e-01 4.07139450e-01 4.07627016e-01 4.08117592e-01 4.08609629e-01 4.09099162e-01 4.09585208e-01 4.10070390e-01 4.10555959e-01 4.11041558e-01 4.11527127e-01 4.12021667e-01 4.12534148e-01 4.13055569e-01 4.13577020e-01 4.14099693e-01 4.14624900e-01 4.15151358e-01 4.15677816e-01 4.16204274e-01 4.16730732e-01 4.17250931e-01 4.17758644e-01 4.18258220e-01 4.18748885e-01 4.19227600e-01 4.19701338e-01 4.20175076e-01 4.20668095e-01 4.21199679e-01 4.21750516e-01 4.22301352e-01 4.22852218e-01 4.23401088e-01 4.23946023e-01 4.24488962e-01 4.25031930e-01 4.25578296e-01 4.26131457e-01 4.26688045e-01 4.27244633e-01 4.27801222e-01 4.28361297e-01 4.28929299e-01 4.29500997e-01 4.30066139e-01 4.30621177e-01 4.31171685e-01 4.31721449e-01 4.32270855e-01 4.32812721e-01 4.33339536e-01 4.33858842e-01 4.34378117e-01 4.34907019e-01 4.35457408e-01 4.36016589e-01 4.36549217e-01 4.37036246e-01 4.37507272e-01 4.38015193e-01 4.38584328e-01 4.39188957e-01 4.39774245e-01 4.40313429e-01 4.40828770e-01 4.41341966e-01 4.41852152e-01 4.42360133e-01 4.42859828e-01 4.43368047e-01 4.43893880e-01 4.44419712e-01 4.44947869e-01 4.45476711e-01 4.46003884e-01 4.46531057e-01 4.47058231e-01 4.47581202e-01 4.48099941e-01 4.48616266e-01 4.49150085e-01 4.49704885e-01 4.50261831e-01 4.50819850e-01 4.51378673e-01 4.51939106e-01 4.52489227e-01 4.53016043e-01 4.53529596e-01 4.54036266e-01 4.54529196e-01 4.55014050e-01 4.55506563e-01 4.56026524e-01 4.56579804e-01 4.57146794e-01 4.57713783e-01 4.58270401e-01 4.58806306e-01 4.59330171e-01 4.59850550e-01 4.60369200e-01 4.60887849e-01 4.61412221e-01 4.61949110e-01 4.62491035e-01 4.63021785e-01 4.63534474e-01 4.64038074e-01 4.64547932e-01 4.65071827e-01 4.65605468e-01 4.66137648e-01 4.66663033e-01 4.67185795e-01 4.67710137e-01 4.68236685e-01 4.68763858e-01 4.69288975e-01 4.69811440e-01 4.70332026e-01 4.70850915e-01 4.71369833e-01 4.71893728e-01 4.72425252e-01 4.72958237e-01 4.73481774e-01 4.73991036e-01 4.74493831e-01 4.75005329e-01 4.75531310e-01 4.76063520e-01 4.76595700e-01 4.77127910e-01 4.77660120e-01 4.78183568e-01 4.78689522e-01 4.79186773e-01 4.79683995e-01 4.80187476e-01 4.80703443e-01 4.81234640e-01 4.81785953e-01 4.82346117e-01 4.82890844e-01 4.83413845e-01 4.83923107e-01 4.84421194e-01 4.84915942e-01 4.85430032e-01 4.85976607e-01 4.86539632e-01 4.87095177e-01 4.87635434e-01 4.88167763e-01 4.88699228e-01 4.89230722e-01 4.89758253e-01 4.90277886e-01 4.90787059e-01 4.91283149e-01 4.91767764e-01 4.92241383e-01 4.92710471e-01 4.93190169e-01 4.93690491e-01 4.94206935e-01 4.94727671e-01 4.95248020e-01 4.95762795e-01 4.96264011e-01 4.96755302e-01 4.97248769e-01 4.97749776e-01 4.98253137e-01 4.98754203e-01 4.99254107e-01 4.99755114e-01 5.00258267e-01 5.00762463e-01 5.01266718e-01 5.01769662e-01 5.02267778e-01 5.02759993e-01 5.03249884e-01 5.03739238e-01 5.04227400e-01 5.04721045e-01 5.05228162e-01 5.05741000e-01 5.06241262e-01 5.06722987e-01 5.07197559e-01 5.07673264e-01 5.08150578e-01 5.08633256e-01 5.09123504e-01 5.09616971e-01 5.10110438e-01 5.10603905e-01 5.11098087e-01 5.11593699e-01 5.12090027e-01 5.12586415e-01 5.13077080e-01 5.13553917e-01 5.14020622e-01 5.14489770e-01 5.14967680e-01 5.15450358e-01 5.15933096e-01 5.16415596e-01 5.16897261e-01 5.17371118e-01 5.17831326e-01 5.18284082e-01 5.18739700e-01 5.19201279e-01 5.19681990e-01 5.20195544e-01 5.20720780e-01 5.21236300e-01 5.21746933e-01 5.22257626e-01 5.22768319e-01 5.23266912e-01 5.23733675e-01 5.24174809e-01 5.24622798e-01 5.25100410e-01 5.25601804e-01 5.26110530e-01 5.26618004e-01 5.27124047e-01 5.27630031e-01 5.28123498e-01 5.28591692e-01 5.29047310e-01 5.29502988e-01 5.29970050e-01 5.30465126e-01 5.30982137e-01 5.31507730e-01 5.32040238e-01 5.32556832e-01 5.33025920e-01 5.33459842e-01 5.33897519e-01 5.34354806e-01 5.34820974e-01 5.35287201e-01 5.35754144e-01 5.36222517e-01 5.36691546e-01 5.37160635e-01 5.37639618e-01 5.38143873e-01 5.38668096e-01 5.39189279e-01 5.39695621e-01 5.40183902e-01 5.40646434e-01 5.41094363e-01 5.41556835e-01 5.42047024e-01 5.42552233e-01 5.43059349e-01 5.43566465e-01 5.44073522e-01 5.44562757e-01 5.45016170e-01 5.45469582e-01 5.45958817e-01 5.46468079e-01 5.46981633e-01 5.47497332e-01 5.48013031e-01 5.48531413e-01 5.49055159e-01 5.49581647e-01 5.50108075e-01 5.50634563e-01 5.51144719e-01 5.51622212e-01 5.52083373e-01 5.52544594e-01 5.53023517e-01 5.53537965e-01 5.54070175e-01 5.54602385e-01 5.55134535e-01 5.55666745e-01 5.56185126e-01 5.56673944e-01 5.57145000e-01 5.57614088e-01 5.58083177e-01 5.58552265e-01 5.59021294e-01 5.59490383e-01 5.59981108e-01 5.60515165e-01 5.61073720e-01 5.61638296e-01 5.62203884e-01 5.62754571e-01 5.63281059e-01 5.63795328e-01 5.64305067e-01 5.64805210e-01 5.65303504e-01 5.65818727e-01 5.66356242e-01 5.66902757e-01 5.67449331e-01 5.67977428e-01 5.68455875e-01 5.68888783e-01 5.69316328e-01 5.69784522e-01 5.70318758e-01 5.70897579e-01 5.71465254e-01 5.71992695e-01 5.72501242e-01 5.73009729e-01 5.73518276e-01 5.74026644e-01 5.74534595e-01 5.75042427e-01 5.75550258e-01 5.76061547e-01 5.76579869e-01 5.77101648e-01 5.77623427e-01 5.78141987e-01 5.78651726e-01 5.79152346e-01 5.79648674e-01 5.80145240e-01 5.80643594e-01 5.81142843e-01 5.81646681e-01 5.82159877e-01 5.82680583e-01 5.83207071e-01 5.83736420e-01 5.84268391e-01 5.84805667e-01 5.85342586e-01 5.85866690e-01 5.86370885e-01 5.86859763e-01 5.87343335e-01 5.87831676e-01 5.88330328e-01 5.88833809e-01 5.89331329e-01 5.89812756e-01 5.90277553e-01 5.90736032e-01 5.91194570e-01 5.91653049e-01 5.92115283e-01 5.92584908e-01 5.93058288e-01 5.93531668e-01 5.94008148e-01 5.94490647e-01 5.94977319e-01 5.95466256e-01 5.95956326e-01 5.96447051e-01 5.96939147e-01 5.97431898e-01 5.97928941e-01 5.98434627e-01 5.98944545e-01 5.99454522e-01 5.99964499e-01 6.00473404e-01 6.00980103e-01 6.01485789e-01 6.01987660e-01 6.02482200e-01 6.02973342e-01 6.03464663e-01 6.03955984e-01 6.04447126e-01 6.04937553e-01 6.05426788e-01 6.05914414e-01 6.06400490e-01 6.06889665e-01 6.07385993e-01 6.07892632e-01 6.08412743e-01 6.08941317e-01 6.09473526e-01 6.10007524e-01 6.10541523e-01 6.11075521e-01 6.11613691e-01 6.12119257e-01 6.12580657e-01 6.13068402e-01 6.13589823e-01 6.14111245e-01 6.14632666e-01 6.15154147e-01 6.15675569e-01 6.16191089e-01 6.16694748e-01 6.17192566e-01 6.17688656e-01 6.18181825e-01 6.18677020e-01 6.19182765e-01 6.19700789e-01 6.20223701e-01 6.20746553e-01 6.21265292e-01 6.21775806e-01 6.22282207e-01 6.22788548e-01 6.23294950e-01 6.23801291e-01 6.24308109e-01 6.24812365e-01 6.25309706e-01 6.25803888e-01 6.26303315e-01 6.26810968e-01 6.27322316e-01 6.27827287e-01 6.28321946e-01 6.28813326e-01 6.29305363e-01 6.29797399e-01 6.30288541e-01 6.30777836e-01 6.31266296e-01 6.31754756e-01 6.32244825e-01 6.32738113e-01 6.33234620e-01 6.33734345e-01 6.34235680e-01 6.34737074e-01 6.35238409e-01 6.35748565e-01 6.36276245e-01 6.36802018e-01 6.37306213e-01 6.37799501e-01 6.38292491e-01 6.38785243e-01 6.39272392e-01 6.39747202e-01 6.40217960e-01 6.40701652e-01 6.41205549e-01 6.41721487e-01 6.42233670e-01 6.42733574e-01 6.43227756e-01 6.43728316e-01 6.44246161e-01 6.44781172e-01 6.45322382e-01 6.45863533e-01 6.46393120e-01 6.46899581e-01 6.47394478e-01 6.47889376e-01 6.48383677e-01 6.48885548e-01 6.49408042e-01 6.49945259e-01 6.50476754e-01 6.50989354e-01 6.51486576e-01 6.51979387e-01 6.52472734e-01 6.52967155e-01 6.53465629e-01 6.53971255e-01 6.54480517e-01 6.54989779e-01 6.55499041e-01 6.56008244e-01 6.56523705e-01 6.57054067e-01 6.57594144e-01 6.58128858e-01 6.58650458e-01 6.59161568e-01 6.59667909e-01 6.60175383e-01 6.60684764e-01 6.61186695e-01 6.61670983e-01 6.62146747e-01 6.62636995e-01 6.63150012e-01 6.63672864e-01 6.64195955e-01 6.64719164e-01 6.65238261e-01 6.65748596e-01 6.66254461e-01 6.66759193e-01 6.67260766e-01 6.67759061e-01 6.68255329e-01 6.68749511e-01 6.69242263e-01 6.69735849e-01 6.70231462e-01 6.70728326e-01 6.71224177e-01 6.71716928e-01 6.72208250e-01 6.72702432e-01 6.73200905e-01 6.73703790e-01 6.74211860e-01 6.74722552e-01 6.75233245e-01 6.75743937e-01 6.76254570e-01 6.76762819e-01 6.77266061e-01 6.77764773e-01 6.78259134e-01 6.78748071e-01 6.79229379e-01 6.79706097e-01 6.80187464e-01 6.80680692e-01 6.81185305e-01 6.81693852e-01 6.82202339e-01 6.82708740e-01 6.83211088e-01 6.83711171e-01 6.84207618e-01 6.84697390e-01 6.85183108e-01 6.85668826e-01 6.86155796e-01 6.86643541e-01 6.87131286e-01 6.87619030e-01 6.88106716e-01 6.88606322e-01 6.89123094e-01 6.89638793e-01 6.90147996e-01 6.90657258e-01 6.91166520e-01 6.91675782e-01 6.92178011e-01 6.92666292e-01 6.93147540e-01 6.93628788e-01 6.94111705e-01 6.94597840e-01 6.95085526e-01 6.95577204e-01 6.96076810e-01 6.96581185e-01 6.97087407e-01 6.97594464e-01 6.98101580e-01 6.98608637e-01 6.99113250e-01 6.99612796e-01 7.00109839e-01 7.00606883e-01 7.01103985e-01 7.01600671e-01 7.02101767e-01 7.02607572e-01 7.03111172e-01 7.03618646e-01 7.04135418e-01 7.04655409e-01 7.05175400e-01 7.05695748e-01 7.06212580e-01 7.06715286e-01 7.07199693e-01 7.07676649e-01 7.08163559e-01 7.08666205e-01 7.09175110e-01 7.09683597e-01 7.10191488e-01 7.10698903e-01 7.11207747e-01 7.11717606e-01 7.12224960e-01 7.12727010e-01 7.13225245e-01 7.13724017e-01 7.14225471e-01 7.14728236e-01 7.15231061e-01 7.15733826e-01 7.16236651e-01 7.16738164e-01 7.17237175e-01 7.17733324e-01 7.18226254e-01 7.18717575e-01 7.19208896e-01 7.19700217e-01 7.20191717e-01 7.20683455e-01 7.21175253e-01 7.21668959e-01 7.22166359e-01 7.22665548e-01 7.23164737e-01 7.23662198e-01 7.24156022e-01 7.24647999e-01 7.25142658e-01 7.25642443e-01 7.26139963e-01 7.26627231e-01 7.27112055e-01 7.27606714e-01 7.28114545e-01 7.28630960e-01 7.29142606e-01 7.29642570e-01 7.30139852e-01 7.30643928e-01 7.31156170e-01 7.31671870e-01 7.32187569e-01 7.32703269e-01 7.33218968e-01 7.33729899e-01 7.34228849e-01 7.34717309e-01 7.35205829e-01 7.35701084e-01 7.36200273e-01 7.36700058e-01 7.37199605e-01 7.37701893e-01 7.38210917e-01 7.38721609e-01 7.39223123e-01 7.39711523e-01 7.40193725e-01 7.40680873e-01 7.41176963e-01 7.41677642e-01 7.42179036e-01 7.42680967e-01 7.43183434e-01 7.43685842e-01 7.44187713e-01 7.44686842e-01 7.45184004e-01 7.45681465e-01 7.46177554e-01 7.46670544e-01 7.47161865e-01 7.47655213e-01 7.48151958e-01 7.48651445e-01 7.49153614e-01 7.49657094e-01 7.50160635e-01 7.50664115e-01 7.51167595e-01 7.51671135e-01 7.52173722e-01 7.52674580e-01 7.53174484e-01 7.53674388e-01 7.54174292e-01 7.54673541e-01 7.55171478e-01 7.55668700e-01 7.56165922e-01 7.56663144e-01 7.57161975e-01 7.57663906e-01 7.58167386e-01 7.58671999e-01 7.59178758e-01 7.59686530e-01 7.60194361e-01 7.60702193e-01 7.61207640e-01 7.61708438e-01 7.62206972e-01 7.62705445e-01 7.63203919e-01 7.63702393e-01 7.64200866e-01 7.64699399e-01 7.65198588e-01 7.65699208e-01 7.66200602e-01 7.66701937e-01 7.67203271e-01 7.67705500e-01 7.68206537e-01 7.68702149e-01 7.69194901e-01 7.69692242e-01 7.70197749e-01 7.70709157e-01 7.71219730e-01 7.71723211e-01 7.72219658e-01 7.72714317e-01 7.73209751e-01 7.73705482e-01 7.74201095e-01 7.74696708e-01 7.75190175e-01 7.75678635e-01 7.76164651e-01 7.76654541e-01 7.77150512e-01 7.77648985e-01 7.78147459e-01 7.78647602e-01 7.79151261e-01 7.79657304e-01 7.80163646e-01 7.80670047e-01 7.81176388e-01 7.81682789e-01 7.82185256e-01 7.82686114e-01 7.83191383e-01 7.83694685e-01 7.84193873e-01 7.84693062e-01 7.85192251e-01 7.85691500e-01 7.86190689e-01 7.86689878e-01 7.87189066e-01 7.87688315e-01 7.88187504e-01 7.88686693e-01 7.89185882e-01 7.89686024e-01 7.90187895e-01 7.90690660e-01 7.91192174e-01 7.91696072e-01 7.92210340e-01 7.92730331e-01 7.93243647e-01 7.93745399e-01 7.94239581e-01 7.94733286e-01 7.95230091e-01 7.95728624e-01 7.96228170e-01 7.96729863e-01 7.97232687e-01 7.97735453e-01 7.98238218e-01 7.98741043e-01 7.99243808e-01 7.99746633e-01 8.00249398e-01 8.00752223e-01 8.01254988e-01 8.01757038e-01 8.02257717e-01 8.02757621e-01 8.03257525e-01 8.03757429e-01 8.04258823e-01 8.04763615e-01 8.05270374e-01 8.05775225e-01 8.06276560e-01 8.06776524e-01 8.07276428e-01 8.07775974e-01 8.08274865e-01 8.08773339e-01 8.09271812e-01 8.09770286e-01 8.10268760e-01 8.10767293e-01 8.11263621e-01 8.11761558e-01 8.12261283e-01 8.12758327e-01 8.13261867e-01 8.13772559e-01 8.14283192e-01 8.14793885e-01 8.15304577e-01 8.15814376e-01 8.16322327e-01 8.16829443e-01 8.17336559e-01 8.17843616e-01 8.18347871e-01 8.18846345e-01 8.19341958e-01 8.19837570e-01 8.20333898e-01 8.20831656e-01 8.21331799e-01 8.21835101e-01 8.22340071e-01 8.22844982e-01 8.23349953e-01 8.23854864e-01 8.24359834e-01 8.24862957e-01 8.25362504e-01 8.25860262e-01 8.26358080e-01 8.26855838e-01 8.27355564e-01 8.27859282e-01 8.28364909e-01 8.28870595e-01 8.29376221e-01 8.29881907e-01 8.30386460e-01 8.30889106e-01 8.31390977e-01 8.31893027e-01 8.32395136e-01 8.32897186e-01 8.33399296e-01 8.33900154e-01 8.34398270e-01 8.34895313e-01 8.35396230e-01 8.35902095e-01 8.36409092e-01 8.36915433e-01 8.37421834e-01 8.37927997e-01 8.38433862e-01 8.38939548e-01 8.39445174e-01 8.39949787e-01 8.40452194e-01 8.40953529e-01 8.41454923e-01 8.41956198e-01 8.42457235e-01 8.42959166e-01 8.43462825e-01 8.43966544e-01 8.44468415e-01 8.44970286e-01 8.45474005e-01 8.45977068e-01 8.46477091e-01 8.46976638e-01 8.47478330e-01 8.47982407e-01 8.48489285e-01 8.48996758e-01 8.49500537e-01 8.49999070e-01 8.50495398e-01 8.50991726e-01 8.51488054e-01 8.51985633e-01 8.52486193e-01 8.52989256e-01 8.53492737e-01 8.53995264e-01 8.54497313e-01 8.54999244e-01 8.55500758e-01 8.56002092e-01 8.56503487e-01 8.57004821e-01 8.57506156e-01 8.58007252e-01 8.58507872e-01 8.59008312e-01 8.59509349e-01 8.60011160e-01 8.60513628e-01 8.61016750e-01 8.61521602e-01 8.62028539e-01 8.62535417e-01 8.63041520e-01 8.63545597e-01 8.64045262e-01 8.64542723e-01 8.65043640e-01 8.65551472e-01 8.66064012e-01 8.66576135e-01 8.67085278e-01 8.67592156e-01 8.68097365e-01 8.68601799e-01 8.69105458e-01 8.69607568e-01 8.70108902e-01 8.70611370e-01 8.71115685e-01 8.71620655e-01 8.72123301e-01 8.72622550e-01 8.73119950e-01 8.73616159e-01 8.74111772e-01 8.74608934e-01 8.75108659e-01 8.75609219e-01 8.76109362e-01 8.76609325e-01 8.77109230e-01 8.77609134e-01 8.78110170e-01 8.78613889e-01 8.79119575e-01 8.79624605e-01 8.80127370e-01 8.80628943e-01 8.81130874e-01 8.81633699e-01 8.82137120e-01 8.82641613e-01 8.83147418e-01 8.83653820e-01 8.84160161e-01 8.84665132e-01 8.85167181e-01 8.85667801e-01 8.86168480e-01 8.86669099e-01 8.87169719e-01 8.87670755e-01 8.88172448e-01 8.88674498e-01 8.89178038e-01 8.89684439e-01 8.90192211e-01 8.90700042e-01 8.91207814e-01 8.91715527e-01 8.92223060e-01 8.92730653e-01 8.93236518e-01 8.93738925e-01 8.94239783e-01 8.94740283e-01 8.95240366e-01 8.95740271e-01 8.96239638e-01 8.96737933e-01 8.97235692e-01 8.97733450e-01 8.98232162e-01 8.98733437e-01 8.99237633e-01 8.99743319e-01 9.00247991e-01 9.00750935e-01 9.01253462e-01 9.01756287e-01 9.02259052e-01 9.02761877e-01 9.03264642e-01 9.03767407e-01 9.04270232e-01 9.04773295e-01 9.05276895e-01 9.05780733e-01 9.06284630e-01 9.06788468e-01 9.07290995e-01 9.07790244e-01 9.08287168e-01 9.08784330e-01 9.09282804e-01 9.09782410e-01 9.10282969e-01 9.10783947e-01 9.11284447e-01 9.11784410e-01 9.12284911e-01 9.12786961e-01 9.13289726e-01 9.13791180e-01 9.14290309e-01 9.14788067e-01 9.15286720e-01 9.15787220e-01 9.16288555e-01 9.16789889e-01 9.17291284e-01 9.17792976e-01 9.18295443e-01 9.18798447e-01 9.19301212e-01 9.20328557e-01 9.21253145e-01 9.21253145e-01 9.21349227e-01 9.29867744e-01 9.49540496e-01 9.73273218e-01 9.89913881e-01 9.95328009e-01 9.95830178e-01 9.96331453e-01 9.96832728e-01 9.97334898e-01 9.97892082e-01 9.98558342e-01 9.99279141e-01 1.00000000e+00 
            </Histogram>
            <HistogramBinning NBins="1832">
